{"learner":{"attributes":{"best_iteration":"99","best_ntree_limit":"100","scikit_learn":"{\"n_estimators\": 100, \"objective\": \"reg:squarederror\", \"max_depth\": 8, \"max_leaves\": null, \"max_bin\": null, \"grow_policy\": null, \"learning_rate\": 0.01, \"verbosity\": null, \"booster\": null, \"tree_method\": null, \"gamma\": null, \"min_child_weight\": null, \"max_delta_step\": null, \"subsample\": 0.7, \"sampling_method\": null, \"colsample_bytree\": 0.7, \"colsample_bylevel\": null, \"colsample_bynode\": null, \"reg_alpha\": null, \"reg_lambda\": null, \"scale_pos_weight\": null, \"base_score\": null, \"missing\": NaN, \"num_parallel_tree\": null, \"random_state\": 42, \"n_jobs\": 4, \"monotone_constraints\": null, \"interaction_constraints\": null, \"importance_type\": null, \"gpu_id\": null, \"validate_parameters\": null, \"predictor\": null, \"enable_categorical\": false, \"feature_types\": null, \"max_cat_to_onehot\": null, \"max_cat_threshold\": null, \"eval_metric\": null, \"early_stopping_rounds\": null, \"callbacks\": null, \"_estimator_type\": \"regressor\"}"},"feature_names":["feature_antistrophic_striate_conscriptionist","feature_bicameral_showery_wallaba","feature_bridal_fingered_pensioner","feature_collectivist_flaxen_gueux","feature_concurring_fabled_adapter","feature_crosscut_whilom_ataxy","feature_departmental_inimitable_sentencer","feature_dialectal_homely_cambodia","feature_donnard_groutier_twinkle","feature_elusive_vapoury_accomplice","feature_geminate_crummiest_scourer","feature_glandered_unimproved_peafowl","feature_hempen_unionist_cone","feature_illuminated_gambrel_noria","feature_jacobinical_symmetric_roll","feature_jewish_stained_disembowelment","feature_lacklustre_centroidal_schweitzer","feature_limiest_heliolithic_york","feature_maledictive_latter_psellism","feature_mendelian_undiscording_avion","feature_musicianly_aspirate_creativity","feature_petty_upraised_caddice","feature_pottier_unmanly_collyrium","feature_reclaimed_insurrectional_moneyer","feature_saddening_unsound_rustling","feature_simulated_nonclassified_intercessor","feature_snakiest_somalian_wavelet","feature_splanchnic_notional_pint","feature_strained_equivocal_phoneme","feature_stretchy_spiniest_fizgig","feature_toltec_korean_disfavourer","feature_transisthmian_yogic_linden","feature_tridactyl_immoral_snorting","feature_trimeter_soggy_greatest","feature_unanalyzable_excusable_whirlwind","feature_unbreakable_constraining_hegelianism","feature_unformed_bent_smatch","feature_unministerial_unextenuated_teleostean","feature_unmodish_zymogenic_rousing","feature_unsystematized_subcardinal_malaysia","feature_willful_sere_chronobiology","feature_zoological_peristomial_scute"],"feature_types":["int","int","int","int","int","int","int","int","int","int","int","int","int","int","int","int","int","int","int","int","int","int","int","int","int","int","int","int","int","int","int","int","int","int","int","int","int","int","int","int","int","int"],"gradient_booster":{"model":{"gbtree_model_param":{"num_parallel_tree":"1","num_trees":"100","size_leaf_vector":"0"},"tree_info":[0,0,0,0,0,0,0,0,0,0,0,0,0,0,0,0,0,0,0,0,0,0,0,0,0,0,0,0,0,0,0,0,0,0,0,0,0,0,0,0,0,0,0,0,0,0,0,0,0,0,0,0,0,0,0,0,0,0,0,0,0,0,0,0,0,0,0,0,0,0,0,0,0,0,0,0,0,0,0,0,0,0,0,0,0,0,0,0,0,0,0,0,0,0,0,0,0,0,0,0],"trees":[{"base_weights":[-1.3257297E-5,-1.1433539E-3,4.505646E-3,1.6433871E-3,-3.5184734E-3,2.900124E-3,9.068625E-3,-7.308348E-4,4.792306E-3,-4.8949937E-3,-8.1823143E-4,-2.300145E-3,4.7166906E-3,1.3046608E-3,1.3998858E-2,9.892586E-4,-8.575207E-3,5.94554E-3,-2.6781326E-3,-2.176197E-3,-6.996404E-3,-2.950015E-3,1.7925411E-3,1.3903109E-3,-9.996651E-3,1.5851713E-3,7.6947263E-3,-7.0490227E-3,6.9006225E-3,1.0851765E-2,2.3322767E-2,-1.9163487E-4,3.816383E-3,-5.2717924E-3,-1.5877228E-2,8.021262E-3,1.7770957E-3,-7.880608E-3,1.176219E-3,-1.0710368E-3,-6.6481526E-3,-8.908845E-3,-3.973072E-3,-1.6028925E-3,-8.014796E-3,-7.338217E-4,6.2393276E-3,-6.7771086E-3,3.6933133E-3,-9.448447E-4,-1.4967244E-2,1.1707596E-2,6.431107E-4,4.2393315E-3,1.2376939E-2,5.0955415E-3,-1.522625E-2,7.003807E-4,1.6106667E-2,7.855409E-3,2.010084E-2,3.5663527E-2,1.6252926E-2,2.682185E-3,-1.6489829E-3,1.070191E-2,1.6107855E-3,-1.2283684E-2,-1.9154538E-3,-2.8859528E-2,-1.3422201E-2,1.20579405E-2,5.6990576E-3,1.3059417E-3,1.9536424E-2,-3.1961084E-3,-1.9805526E-2,2.1892E-3,-2.8571429E-2,-2.2184358E-3,3.135766E-3,-2.2502251E-4,-1.0484928E-2,-6.861368E-3,-1.1878215E-2,-5.665707E-3,1.736553E-3,-2.8317075E-3,5.6773024E-3,-1.5777545E-2,-3.7674662E-3,-4.353502E-3,2.3758323E-3,4.1795196E-3,1.42194005E-2,-1.0122252E-2,7.839294E-3,1.6985405E-2,2.1788366E-3,1.7825833E-2,-5.6977947E-3,-2.4495678E-2,-7.847025E-3,-4.6018837E-3,1.7640186E-2,-3.8349787E-3,2.9524546E-3,6.354827E-3,-4.283867E-3,6.2454413E-3,1.580055E-2,1.2578277E-2,-1.590909E-2,-2.0844469E-2,7.59631E-3,-3.2965902E-3,9.905101E-3,2.2927396E-2,3.8725052E-3,5.9927674E-3,1.7580936E-2,5.3293034E-3,2.5855655E-2,-7.3839664E-3,3.961404E-2,-3.5478966E-3,2.1223113E-2,8.150099E-3,1.4898134E-4,1.2084468E-3,-3.4851055E-3,1.6388865E-2,5.197073E-3,2.934928E-3,-6.532469E-3,1.3865444E-3,-1.6993519E-2,-1.1228533E-2,1.506816E-3,-3.720777E-2,1.6547406E-2,-3.5981054E-3,-1.7407052E-2,1.5248063E-2,6.4232224E-3,9.714687E-3,3.2780536E-3,-4.650253E-3,2.744736E-3,4.067245E-2,5.0223214E-3,-1.2263646E-2,4.244731E-3,-5.0207756E-2,-1.4529299E-2,-1.033668E-3,1.1791622E-2,-7.86802E-2,-1.13240415E-2,-6.3122384E-4,-4.680431E-3,6.4218715E-3,-3.939417E-3,4.4946284E-3,-1.5999023E-2,-1.5520287E-2,-1.260824E-3,-1.0762673E-2,-5.252918E-3,-3.049505E-2,-1.0581829E-2,-7.188274E-3,6.3722505E-4,-6.492963E-4,1.7443463E-2,-1.1925546E-3,-6.603505E-3,1.16274245E-2,-7.248334E-3,-1.218638E-2,-3.6299765E-2,2.2306109E-2,-5.7141394E-3,-2.4586793E-3,-9.219245E-3,-2.0772382E-3,5.284988E-3,-3.7513399E-3,5.918799E-3,2.8361926E-2,5.340396E-3,-1.3602317E-2,3.2590984E-3,6.1728396E-2,-5.497862E-3,8.3056476E-4,2.6821863E-2,-9.570495E-3,4.8320214E-3,-1.3046544E-2,3.9631106E-2,-5.3003535E-4,-3.233151E-2,-2.8228782E-2,-7.2402046E-3,-1.2748976E-2,1.2020607E-2,-1.1012061E-2,2.3837209E-2,2.3586957E-2,2.6084569E-3,9.127549E-3,-5.8022384E-3,-9.3629485E-4,5.940171E-3,4.3611624E-3,1.4070745E-2,-8.659485E-3,2.0833334E-3,1.4442991E-3,1.2295645E-2,1.7817145E-3,1.860413E-2,-1.622039E-2,2.0213056E-2,1.48480665E-2,-3.99137E-2,-1.54921515E-2,-4.4740688E-2,-3.810021E-2,2.3626374E-2,-1.3237774E-2,1.0751891E-3,-1.6687658E-2,1.6072473E-2,-3.0701754E-3,2.5642201E-2,9.615385E-3,-2.3871528E-2,-5.5089192E-3,8.250587E-3,2.9767336E-2,9.64678E-3,-1.3802622E-2,2.1681417E-2,1.3702461E-2,3.5531297E-2,-6.952663E-2,2.6960785E-2,-8.77193E-4,4.4637017E-2,4.565868E-2,-1.3567073E-2,1.7721519E-3,2.7749447E-2,-4.212183E-3,1.1577758E-2,-1.3644242E-3,6.018897E-3,-3.7621075E-4,6.773353E-3,-4.737048E-3,1.9349189E-3,2.0123105E-3,1.9573888E-2,1.1857253E-2,-2.6759796E-3,6.4316927E-3,4.6332358E-4,-3.1748213E-2,-1.1450382E-3,-2.213217E-2,1.6214622E-2,-2.4615258E-2,-9.304072E-3,-6.4992616E-3,-2.5053997E-2,-4.4827303E-3,7.250396E-3,-1.7241379E-3,-4.312332E-2,-6.7114094E-3,1.0840708E-1,-9.840034E-3,3.653586E-2,2.966303E-3,-2.1163443E-2,2.3028182E-2,1.2547186E-2,-8.446363E-3,9.56626E-3,7.079169E-3,1.6787937E-2,-3.8452966E-3,4.982311E-3,5.270172E-3,-7.92888E-3,-1.9536338E-4,7.4227583E-3,1.3068181E-1,3.1137725E-2,-1.2355848E-3,6.29771E-2,-7.835074E-3,-3.0234657E-2,-7.2658774E-3,1.2172516E-2,-9.865471E-2,-2.85E-2,7.133593E-3,-2.7258864E-2,4.608405E-3,-1.01764435E-2,1.586582E-3,2.6010953E-2,-1.0810811E-1,1E-2,-4.5373667E-2,2.1258503E-2,2.5275678E-3,-2.9884642E-3,-6.4407173E-3,-4.5992518E-5,4.3001617E-3,1.9154228E-2,5.990185E-3,-7.51821E-3,1.2685227E-2,-3.3200057E-3,-5.5717053E-3,-4.82983E-2,-1.9258088E-2,-1.3287271E-4,-6.8505337E-3,2.139423E-2,-8.341898E-3,-2.2528552E-2,-8.5392995E-3,-3.3040748E-3,-2.1071644E-3,-4.439528E-2,-1.3210537E-2,-6.410485E-3,-1.3205652E-2,-5.6219106E-3,4.9248952E-3,-8.269395E-3,-3.787879E-3,1.027783E-2,-0E0,2.8802369E-2,-3.7250787E-3,3.6164024E-3,-2.5388642E-4,-1.0923878E-2,3.3760506E-3,2.4084479E-2,-1.8942798E-2,1.03837475E-2,-1.8262828E-2,-5.525751E-3,-4.725086E-2,-1.2844036E-2,-3.717949E-2,3.1472683E-2,-1.3505771E-3,-1.3019049E-2,-3.485454E-4,-1.1148325E-2,-1.8808255E-2,-5.3306343E-3,1.1173184E-2,-4.546717E-3,7.552157E-3,-4.3727383E-3,-7.0132706E-3,2.9792747E-2,9.501049E-3,1.0496712E-3,-1.3568521E-3,3.5962474E-2,-9.1889245E-4,2.056019E-2,-2.039897E-2,-5.3258147E-3,-4.1911766E-2,1.3482024E-2,1.17486335E-1,1.5695067E-2,-2.9103609E-2,2.0539153E-2,-9.615385E-3,3.383978E-2,1.7429193E-2,5.3937007E-2,-3.345841E-2,-1.6570009E-3,1.0763923E-2,1.472369E-3,-4.280822E-2,3.492647E-2,-4.206731E-3,7.057823E-2,-2.0176787E-2,5.3325687E-3,-6.26294E-2,-8.5227275E-3,-2.0408163E-2,-4.0224507E-2,-2.5345622E-2,1.5267176E-2,-1.9640015E-2,4.1423E-3,4.671968E-2,-2.008032E-3,-1.8585525E-2,1.8685566E-2,-6.4655175E-3,5.9045225E-2,4.074505E-3,2.805986E-2,4.040404E-2,-2.0012315E-3,1.6413724E-2,-9.469697E-3,2.2793687E-3,-9.395956E-3,-1.0904345E-2,1.8781798E-3,-3.8130782E-3,8.01714E-3,1.1384038E-2,3.076004E-3,4.154979E-2,9.6208425E-3,2.8437604E-3,-1.6570771E-2,-6.7389873E-3,1.5507754E-2,1.5018773E-2,-3.3564474E-3,1.7585967E-2,-7.2533847E-3,1.8684957E-2,-1.0989993E-2,2.4183798E-3,2.1881275E-2,5.033557E-2,-2.8250303E-2,-2.9686175E-3,3.1212244E-2,4.1256156E-2,-1.8808777E-2,-2.3170732E-2,-7.268371E-2,-4.5997612E-2,-1.0653409E-2,-6.760772E-2,-2.2596844E-2,4.375E-2,-5.4375E-2,4.1100122E-2,-1.7953322E-3,-1.8755615E-2,3.3783785E-3,9.4884485E-3,-5.788907E-3,2.3584906E-2,-2.672956E-2,2.0744681E-2,-5.804312E-3,1.0845987E-2,-6.1363637E-2,2.1853885E-2,5.06993E-2,2.1102896E-2,-6.4655175E-3,-8.097166E-3,-1.1746988E-1,-2.749577E-2,1.7438616E-3,5.971103E-3,2.0068808E-2,5.258694E-2,3.2051282E-3,1.250481E-3,3.793774E-2,-6.5254234E-2,-6.4935064E-4,2.9626254E-3,5.5926543E-2,2.031054E-2,-4.0488433E-2,4.2342212E-2,1.2789575E-2,-1.3559322E-1,-3.3783782E-2,-1.2569833E-2,8.203125E-2,-9.246575E-2,1.2550201E-2,3.3728752E-2,6.207483E-2,-2.173913E-2,7.098766E-2,-5.960854E-2,-4.044118E-3,1.02214655E-2,-6.744186E-2,-3.6764707E-2,3.1283613E-2],"categories":[],"categories_nodes":[],"categories_segments":[],"categories_sizes":[],"default_left":[1,1,1,1,1,1,1,1,1,1,1,1,1,1,1,1,1,1,1,1,1,1,1,1,1,1,1,1,1,1,1,1,1,1,1,1,1,1,1,1,1,1,1,1,1,1,1,1,1,1,1,1,1,1,1,1,1,1,1,1,1,1,1,1,1,1,1,1,1,1,1,1,1,1,1,1,1,1,1,1,1,1,1,1,1,1,1,1,1,1,1,1,1,1,1,1,1,1,1,1,1,1,1,1,1,1,1,1,1,1,1,1,1,1,1,1,1,1,1,1,1,1,1,1,1,1,1,1,1,1,1,1,1,1,1,1,1,1,1,1,1,1,1,1,1,1,1,1,1,1,1,1,1,1,1,1,1,1,1,1,1,1,1,1,1,1,1,1,1,1,1,1,1,1,1,1,1,1,1,1,1,1,1,1,1,1,1,1,1,1,1,1,1,1,1,1,1,1,1,1,1,1,1,1,1,1,1,1,1,1,1,1,1,1,1,1,1,1,1,1,1,1,1,1,1,1,1,1,1,1,1,1,1,1,1,1,1,1,1,1,1,1,1,1,1,1,1,1,1,1,1,1,1,1,1,0,0,0,0,0,0,0,0,0,0,0,0,0,0,0,0,0,0,0,0,0,0,0,0,0,0,0,0,0,0,0,0,0,0,0,0,0,0,0,0,0,0,0,0,0,0,0,0,0,0,0,0,0,0,0,0,0,0,0,0,0,0,0,0,0,0,0,0,0,0,0,0,0,0,0,0,0,0,0,0,0,0,0,0,0,0,0,0,0,0,0,0,0,0,0,0,0,0,0,0,0,0,0,0,0,0,0,0,0,0,0,0,0,0,0,0,0,0,0,0,0,0,0,0,0,0,0,0,0,0,0,0,0,0,0,0,0,0,0,0,0,0,0,0,0,0,0,0,0,0,0,0,0,0,0,0,0,0,0,0,0,0,0,0,0,0,0,0,0,0,0,0,0,0,0,0,0,0,0,0,0,0,0,0,0,0,0,0,0,0,0,0,0,0,0,0,0,0,0,0,0,0,0,0,0,0,0,0,0,0,0,0,0,0,0,0,0,0,0,0,0,0,0,0,0,0,0,0,0,0,0,0,0,0,0,0,0,0,0,0,0,0,0,0,0,0,0,0,0,0,0,0,0,0,0,0],"id":0,"left_children":[1,3,5,7,9,11,13,15,17,19,21,23,25,27,29,31,33,35,37,39,41,43,45,47,49,51,53,55,57,59,61,63,65,67,69,71,73,75,77,79,81,83,85,87,89,91,93,95,97,99,101,103,105,107,109,111,113,115,117,119,121,123,125,127,129,131,133,135,137,139,141,143,145,147,149,151,153,155,157,159,161,163,165,167,169,171,173,175,177,179,181,183,185,187,189,191,193,195,197,199,201,203,205,207,209,211,213,215,217,219,221,223,225,227,229,231,233,235,237,239,241,243,245,247,249,251,253,255,257,259,261,263,265,267,269,271,273,275,277,279,281,283,285,287,289,291,293,295,297,299,301,303,305,307,309,311,313,315,317,319,321,323,325,327,329,331,333,335,337,339,341,343,345,347,349,351,353,355,357,359,361,363,365,367,369,371,373,375,377,379,381,383,385,387,389,391,393,395,397,399,401,403,405,407,409,411,413,415,417,419,421,423,425,427,429,431,433,435,437,439,441,443,445,447,449,451,453,455,457,459,461,463,465,467,469,471,473,475,477,479,481,483,485,487,489,491,493,495,497,499,501,503,505,507,509,-1,-1,-1,-1,-1,-1,-1,-1,-1,-1,-1,-1,-1,-1,-1,-1,-1,-1,-1,-1,-1,-1,-1,-1,-1,-1,-1,-1,-1,-1,-1,-1,-1,-1,-1,-1,-1,-1,-1,-1,-1,-1,-1,-1,-1,-1,-1,-1,-1,-1,-1,-1,-1,-1,-1,-1,-1,-1,-1,-1,-1,-1,-1,-1,-1,-1,-1,-1,-1,-1,-1,-1,-1,-1,-1,-1,-1,-1,-1,-1,-1,-1,-1,-1,-1,-1,-1,-1,-1,-1,-1,-1,-1,-1,-1,-1,-1,-1,-1,-1,-1,-1,-1,-1,-1,-1,-1,-1,-1,-1,-1,-1,-1,-1,-1,-1,-1,-1,-1,-1,-1,-1,-1,-1,-1,-1,-1,-1,-1,-1,-1,-1,-1,-1,-1,-1,-1,-1,-1,-1,-1,-1,-1,-1,-1,-1,-1,-1,-1,-1,-1,-1,-1,-1,-1,-1,-1,-1,-1,-1,-1,-1,-1,-1,-1,-1,-1,-1,-1,-1,-1,-1,-1,-1,-1,-1,-1,-1,-1,-1,-1,-1,-1,-1,-1,-1,-1,-1,-1,-1,-1,-1,-1,-1,-1,-1,-1,-1,-1,-1,-1,-1,-1,-1,-1,-1,-1,-1,-1,-1,-1,-1,-1,-1,-1,-1,-1,-1,-1,-1,-1,-1,-1,-1,-1,-1,-1,-1,-1,-1,-1,-1,-1,-1,-1,-1,-1,-1,-1,-1,-1,-1,-1,-1,-1,-1,-1,-1,-1,-1,-1,-1,-1,-1,-1,-1],"loss_changes":[9.822771E0,1.0184254E1,2.8189683E0,5.2930937E0,3.0876074E0,2.6889293E0,3.8336525E0,5.4464526E0,2.621972E0,3.1434746E0,1.561062E0,2.0931046E0,1.967288E0,1.818456E0,1.797164E0,1.105242E0,1.7509756E0,2.2811651E0,8.161324E-1,1.185475E0,1.794322E0,1.0534807E0,1.4163896E0,9.369117E-1,1.0745502E0,9.8055387E-1,1.7493072E0,1.5497923E0,1.3296604E0,1.269094E0,1.3480015E0,9.7800994E-1,1.4812937E0,1.1762905E0,7.202678E-1,1.6497631E0,7.3331666E-1,9.6752715E-1,7.0459086E-1,9.2839473E-1,1.1713812E0,1.1556244E0,1.1621141E0,1.0911343E0,1.0695186E0,9.0500015E-1,7.507688E-1,5.357617E-1,7.82116E-1,7.5549424E-1,1.0457668E0,8.471929E-1,9.728728E-1,1.1218127E0,9.636793E-1,9.872409E-1,1.1959579E0,5.122001E-1,7.8221655E-1,6.265707E-1,9.52456E-1,9.5755863E-1,9.673846E-1,1.0883539E0,8.129321E-1,7.4073434E-1,7.966222E-1,1.041765E0,1.0774137E0,1.3633657E0,7.444062E-1,1.1552372E0,1.0861812E0,7.316885E-1,6.946308E-1,8.391775E-1,7.82869E-1,6.9976246E-1,6.645779E-1,5.905299E-1,9.583355E-1,1.3234555E0,1.3820944E0,7.0597506E-1,1.872016E0,8.9010215E-1,1.0304428E0,6.4516616E-1,1.3547616E0,8.450289E-1,1.0644453E0,3.4252685E-1,5.602748E-1,5.008541E-1,1.1765795E0,4.152444E-1,1.467262E0,6.3147163E-1,1.0873967E0,1.1523292E0,9.299936E-1,4.244933E-1,8.596213E-1,4.2611444E-1,5.738238E-1,8.1627786E-1,7.211298E-1,7.6668644E-1,3.4470737E-1,4.7787797E-1,1.1578703E0,1.0185528E0,1.21881E0,9.565115E-1,1.350931E0,4.2188683E-1,6.9155943E-1,4.248898E-1,5.351025E-1,7.5404763E-1,5.3730273E-1,9.835787E-1,9.477587E-1,1.0135205E0,1.0486994E0,9.73327E-1,9.9734616E-1,1.0541792E0,4.770378E-1,5.3453416E-1,6.4009094E-1,5.329063E-1,6.306264E-1,5.4919237E-1,1.4036818E0,1.4465727E0,7.0504713E-1,5.9378886E-1,8.504705E-1,6.374073E-1,1.1950574E0,1.3754272E0,1.0354409E0,8.620491E-1,1.0860308E0,7.832792E-1,8.4625137E-1,5.403533E-1,9.458262E-1,7.8720486E-1,4.8751378E-1,4.4592172E-1,6.2353325E-1,7.564974E-1,1.1484559E0,8.733675E-1,8.2446706E-1,5.1518667E-1,6.3777363E-1,6.841861E-1,4.8324335E-1,7.6026416E-1,4.6460706E-1,8.758435E-1,1.3785689E0,1.1071048E0,1.3309557E0,9.3532085E-1,5.102296E-1,1.9926271E0,7.952242E-1,7.0405006E-1,6.892313E-1,8.187456E-1,7.1845067E-1,8.859359E-1,8.672006E-1,1.2397451E0,1.1452127E0,3.9511764E-1,4.3812013E-1,7.956419E-1,6.219676E-1,4.9034584E-1,3.8817894E-1,5.592635E-1,5.7280266E-1,7.1482116E-1,5.193908E-1,8.163755E-1,5.4855525E-1,3.979342E-1,8.5069907E-1,1.0376793E0,1.0067359E0,5.1926833E-1,6.281284E-1,1.2146955E0,5.670874E-1,1.013775E0,1.361022E0,6.520328E-1,7.915151E-1,5.0765085E-1,4.7879845E-1,8.2406604E-1,8.5049987E-1,4.2925823E-1,4.5914832E-1,4.0136147E-1,3.1734616E-1,5.717063E-1,8.071557E-1,7.56603E-1,7.1105826E-1,3.5747433E-1,1.2510045E0,6.673902E-1,5.970146E-1,5.97898E-1,7.5292647E-1,1.0604081E0,1.302208E0,7.7886516E-1,9.3357277E-1,6.442766E-1,5.0693035E-1,9.022809E-1,6.916847E-1,6.404525E-1,6.064238E-1,2.7191025E-1,3.8945928E-1,3.2173443E-1,3.4989285E-1,4.630617E-1,5.162289E-1,5.1405406E-1,8.494866E-1,7.599025E-1,6.5372765E-1,1.3284881E0,8.0022275E-1,9.8057854E-1,1.0863757E0,1.2813797E0,6.9476795E-1,3.944971E-1,6.6718376E-1,7.02144E-1,8.7042904E-1,5.7172036E-1,7.188183E-1,1.1556908E0,1.3424959E0,0E0,0E0,0E0,0E0,0E0,0E0,0E0,0E0,0E0,0E0,0E0,0E0,0E0,0E0,0E0,0E0,0E0,0E0,0E0,0E0,0E0,0E0,0E0,0E0,0E0,0E0,0E0,0E0,0E0,0E0,0E0,0E0,0E0,0E0,0E0,0E0,0E0,0E0,0E0,0E0,0E0,0E0,0E0,0E0,0E0,0E0,0E0,0E0,0E0,0E0,0E0,0E0,0E0,0E0,0E0,0E0,0E0,0E0,0E0,0E0,0E0,0E0,0E0,0E0,0E0,0E0,0E0,0E0,0E0,0E0,0E0,0E0,0E0,0E0,0E0,0E0,0E0,0E0,0E0,0E0,0E0,0E0,0E0,0E0,0E0,0E0,0E0,0E0,0E0,0E0,0E0,0E0,0E0,0E0,0E0,0E0,0E0,0E0,0E0,0E0,0E0,0E0,0E0,0E0,0E0,0E0,0E0,0E0,0E0,0E0,0E0,0E0,0E0,0E0,0E0,0E0,0E0,0E0,0E0,0E0,0E0,0E0,0E0,0E0,0E0,0E0,0E0,0E0,0E0,0E0,0E0,0E0,0E0,0E0,0E0,0E0,0E0,0E0,0E0,0E0,0E0,0E0,0E0,0E0,0E0,0E0,0E0,0E0,0E0,0E0,0E0,0E0,0E0,0E0,0E0,0E0,0E0,0E0,0E0,0E0,0E0,0E0,0E0,0E0,0E0,0E0,0E0,0E0,0E0,0E0,0E0,0E0,0E0,0E0,0E0,0E0,0E0,0E0,0E0,0E0,0E0,0E0,0E0,0E0,0E0,0E0,0E0,0E0,0E0,0E0,0E0,0E0,0E0,0E0,0E0,0E0,0E0,0E0,0E0,0E0,0E0,0E0,0E0,0E0,0E0,0E0,0E0,0E0,0E0,0E0,0E0,0E0,0E0,0E0,0E0,0E0,0E0,0E0,0E0,0E0,0E0,0E0,0E0,0E0,0E0,0E0,0E0,0E0,0E0,0E0,0E0,0E0,0E0,0E0,0E0,0E0,0E0,0E0,0E0,0E0,0E0,0E0,0E0,0E0,0E0,0E0,0E0,0E0,0E0,0E0,0E0,0E0,0E0,0E0,0E0,0E0],"parents":[2147483647,0,0,1,1,2,2,3,3,4,4,5,5,6,6,7,7,8,8,9,9,10,10,11,11,12,12,13,13,14,14,15,15,16,16,17,17,18,18,19,19,20,20,21,21,22,22,23,23,24,24,25,25,26,26,27,27,28,28,29,29,30,30,31,31,32,32,33,33,34,34,35,35,36,36,37,37,38,38,39,39,40,40,41,41,42,42,43,43,44,44,45,45,46,46,47,47,48,48,49,49,50,50,51,51,52,52,53,53,54,54,55,55,56,56,57,57,58,58,59,59,60,60,61,61,62,62,63,63,64,64,65,65,66,66,67,67,68,68,69,69,70,70,71,71,72,72,73,73,74,74,75,75,76,76,77,77,78,78,79,79,80,80,81,81,82,82,83,83,84,84,85,85,86,86,87,87,88,88,89,89,90,90,91,91,92,92,93,93,94,94,95,95,96,96,97,97,98,98,99,99,100,100,101,101,102,102,103,103,104,104,105,105,106,106,107,107,108,108,109,109,110,110,111,111,112,112,113,113,114,114,115,115,116,116,117,117,118,118,119,119,120,120,121,121,122,122,123,123,124,124,125,125,126,126,127,127,128,128,129,129,130,130,131,131,132,132,133,133,134,134,135,135,136,136,137,137,138,138,139,139,140,140,141,141,142,142,143,143,144,144,145,145,146,146,147,147,148,148,149,149,150,150,151,151,152,152,153,153,154,154,155,155,156,156,157,157,158,158,159,159,160,160,161,161,162,162,163,163,164,164,165,165,166,166,167,167,168,168,169,169,170,170,171,171,172,172,173,173,174,174,175,175,176,176,177,177,178,178,179,179,180,180,181,181,182,182,183,183,184,184,185,185,186,186,187,187,188,188,189,189,190,190,191,191,192,192,193,193,194,194,195,195,196,196,197,197,198,198,199,199,200,200,201,201,202,202,203,203,204,204,205,205,206,206,207,207,208,208,209,209,210,210,211,211,212,212,213,213,214,214,215,215,216,216,217,217,218,218,219,219,220,220,221,221,222,222,223,223,224,224,225,225,226,226,227,227,228,228,229,229,230,230,231,231,232,232,233,233,234,234,235,235,236,236,237,237,238,238,239,239,240,240,241,241,242,242,243,243,244,244,245,245,246,246,247,247,248,248,249,249,250,250,251,251,252,252,253,253,254,254],"right_children":[2,4,6,8,10,12,14,16,18,20,22,24,26,28,30,32,34,36,38,40,42,44,46,48,50,52,54,56,58,60,62,64,66,68,70,72,74,76,78,80,82,84,86,88,90,92,94,96,98,100,102,104,106,108,110,112,114,116,118,120,122,124,126,128,130,132,134,136,138,140,142,144,146,148,150,152,154,156,158,160,162,164,166,168,170,172,174,176,178,180,182,184,186,188,190,192,194,196,198,200,202,204,206,208,210,212,214,216,218,220,222,224,226,228,230,232,234,236,238,240,242,244,246,248,250,252,254,256,258,260,262,264,266,268,270,272,274,276,278,280,282,284,286,288,290,292,294,296,298,300,302,304,306,308,310,312,314,316,318,320,322,324,326,328,330,332,334,336,338,340,342,344,346,348,350,352,354,356,358,360,362,364,366,368,370,372,374,376,378,380,382,384,386,388,390,392,394,396,398,400,402,404,406,408,410,412,414,416,418,420,422,424,426,428,430,432,434,436,438,440,442,444,446,448,450,452,454,456,458,460,462,464,466,468,470,472,474,476,478,480,482,484,486,488,490,492,494,496,498,500,502,504,506,508,510,-1,-1,-1,-1,-1,-1,-1,-1,-1,-1,-1,-1,-1,-1,-1,-1,-1,-1,-1,-1,-1,-1,-1,-1,-1,-1,-1,-1,-1,-1,-1,-1,-1,-1,-1,-1,-1,-1,-1,-1,-1,-1,-1,-1,-1,-1,-1,-1,-1,-1,-1,-1,-1,-1,-1,-1,-1,-1,-1,-1,-1,-1,-1,-1,-1,-1,-1,-1,-1,-1,-1,-1,-1,-1,-1,-1,-1,-1,-1,-1,-1,-1,-1,-1,-1,-1,-1,-1,-1,-1,-1,-1,-1,-1,-1,-1,-1,-1,-1,-1,-1,-1,-1,-1,-1,-1,-1,-1,-1,-1,-1,-1,-1,-1,-1,-1,-1,-1,-1,-1,-1,-1,-1,-1,-1,-1,-1,-1,-1,-1,-1,-1,-1,-1,-1,-1,-1,-1,-1,-1,-1,-1,-1,-1,-1,-1,-1,-1,-1,-1,-1,-1,-1,-1,-1,-1,-1,-1,-1,-1,-1,-1,-1,-1,-1,-1,-1,-1,-1,-1,-1,-1,-1,-1,-1,-1,-1,-1,-1,-1,-1,-1,-1,-1,-1,-1,-1,-1,-1,-1,-1,-1,-1,-1,-1,-1,-1,-1,-1,-1,-1,-1,-1,-1,-1,-1,-1,-1,-1,-1,-1,-1,-1,-1,-1,-1,-1,-1,-1,-1,-1,-1,-1,-1,-1,-1,-1,-1,-1,-1,-1,-1,-1,-1,-1,-1,-1,-1,-1,-1,-1,-1,-1,-1,-1,-1,-1,-1,-1,-1,-1,-1,-1,-1,-1,-1],"split_conditions":[3.5E0,1.5E0,3.5E0,2.5E0,2.5E0,1.5E0,3.5E0,3.5E0,3.5E0,2.5E0,2.5E0,3.5E0,1.5E0,1.5E0,3.5E0,3.5E0,3.5E0,1.5E0,1.5E0,3.5E0,2.5E0,3.5E0,2.5E0,5E-1,1.5E0,5E-1,3.5E0,2.5E0,2.5E0,3.5E0,1.5E0,1.5E0,5E-1,5E-1,5E-1,5E-1,3.5E0,3.5E0,3.5E0,3.5E0,1.5E0,3.5E0,3.5E0,3.5E0,1.5E0,1.5E0,3.5E0,3.5E0,5E-1,5E-1,1.5E0,5E-1,1.5E0,3.5E0,1.5E0,2.5E0,3.5E0,2.5E0,2.5E0,3.5E0,5E-1,5E-1,5E-1,5E-1,5E-1,1.5E0,3.5E0,1.5E0,5E-1,3.5E0,5E-1,2.5E0,1.5E0,5E-1,1.5E0,1.5E0,5E-1,3.5E0,5E-1,2.5E0,2.5E0,2.5E0,1.5E0,5E-1,5E-1,3.5E0,3.5E0,3.5E0,3.5E0,3.5E0,5E-1,3.5E0,1.5E0,5E-1,1.5E0,3.5E0,5E-1,1.5E0,5E-1,2.5E0,3.5E0,3.5E0,3.5E0,3.5E0,2.5E0,5E-1,1.5E0,3.5E0,2.5E0,2.5E0,1.5E0,5E-1,1.5E0,3.5E0,1.5E0,1.5E0,5E-1,1.5E0,3.5E0,1.5E0,5E-1,3.5E0,2.5E0,1.5E0,5E-1,1.5E0,5E-1,5E-1,3.5E0,2.5E0,3.5E0,5E-1,1.5E0,1.5E0,5E-1,1.5E0,1.5E0,3.5E0,1.5E0,5E-1,2.5E0,2.5E0,1.5E0,5E-1,5E-1,3.5E0,5E-1,1.5E0,2.5E0,5E-1,3.5E0,3.5E0,5E-1,5E-1,1.5E0,2.5E0,3.5E0,3.5E0,1.5E0,1.5E0,3.5E0,3.5E0,5E-1,1.5E0,3.5E0,3.5E0,3.5E0,3.5E0,1.5E0,1.5E0,3.5E0,5E-1,2.5E0,3.5E0,1.5E0,2.5E0,1.5E0,2.5E0,2.5E0,1.5E0,3.5E0,5E-1,2.5E0,3.5E0,1.5E0,5E-1,3.5E0,3.5E0,2.5E0,5E-1,3.5E0,1.5E0,5E-1,2.5E0,3.5E0,3.5E0,3.5E0,5E-1,2.5E0,2.5E0,5E-1,1.5E0,1.5E0,2.5E0,1.5E0,2.5E0,5E-1,3.5E0,2.5E0,5E-1,5E-1,2.5E0,5E-1,1.5E0,1.5E0,5E-1,5E-1,1.5E0,2.5E0,2.5E0,3.5E0,1.5E0,5E-1,5E-1,5E-1,1.5E0,3.5E0,5E-1,1.5E0,5E-1,2.5E0,3.5E0,1.5E0,5E-1,3.5E0,3.5E0,3.5E0,2.5E0,3.5E0,5E-1,3.5E0,2.5E0,3.5E0,5E-1,2.5E0,3.5E0,3.5E0,5E-1,3.5E0,5E-1,3.5E0,5E-1,5E-1,3.5E0,2.5E0,-4.212183E-5,1.1577758E-4,-1.3644242E-5,6.018897E-5,-3.7621073E-6,6.773353E-5,-4.737048E-5,1.9349189E-5,2.0123105E-5,1.9573887E-4,1.1857252E-4,-2.6759795E-5,6.4316926E-5,4.6332357E-6,-3.1748213E-4,-1.1450382E-5,-2.213217E-4,1.6214621E-4,-2.4615257E-4,-9.304072E-5,-6.4992615E-5,-2.5053995E-4,-4.4827302E-5,7.250396E-5,-1.7241378E-5,-4.312332E-4,-6.7114095E-5,1.0840708E-3,-9.8400335E-5,3.6535857E-4,2.9663028E-5,-2.1163443E-4,2.3028182E-4,1.2547185E-4,-8.446362E-5,9.5662595E-5,7.079169E-5,1.6787936E-4,-3.8452963E-5,4.9823106E-5,5.270172E-5,-7.9288795E-5,-1.9536337E-6,7.422758E-5,1.3068181E-3,3.1137725E-4,-1.2355848E-5,6.29771E-4,-7.835074E-5,-3.0234657E-4,-7.2658775E-5,1.2172516E-4,-9.865471E-4,-2.85E-4,7.1335926E-5,-2.7258863E-4,4.6084046E-5,-1.0176443E-4,1.586582E-5,2.6010952E-4,-1.0810811E-3,1E-4,-4.5373666E-4,2.1258503E-4,2.5275678E-5,-2.988464E-5,-6.440717E-5,-4.5992516E-7,4.3001615E-5,1.9154228E-4,5.9901846E-5,-7.51821E-5,1.2685228E-4,-3.3200056E-5,-5.5717053E-5,-4.8298298E-4,-1.9258088E-4,-1.3287271E-6,-6.850534E-5,2.139423E-4,-8.341898E-5,-2.252855E-4,-8.5392996E-5,-3.3040746E-5,-2.1071643E-5,-4.4395277E-4,-1.3210537E-4,-6.410485E-5,-1.3205652E-4,-5.6219105E-5,4.9248953E-5,-8.269394E-5,-3.7878788E-5,1.027783E-4,-0E0,2.8802367E-4,-3.7250786E-5,3.6164023E-5,-2.5388642E-6,-1.0923878E-4,3.3760505E-5,2.4084478E-4,-1.8942797E-4,1.03837476E-4,-1.8262827E-4,-5.5257507E-5,-4.7250857E-4,-1.2844036E-4,-3.717949E-4,3.147268E-4,-1.3505771E-5,-1.3019048E-4,-3.485454E-6,-1.1148325E-4,-1.8808254E-4,-5.3306343E-5,1.1173184E-4,-4.5467168E-5,7.552157E-5,-4.372738E-5,-7.013271E-5,2.9792747E-4,9.501049E-5,1.0496712E-5,-1.3568521E-5,3.5962474E-4,-9.188924E-6,2.056019E-4,-2.0398971E-4,-5.3258147E-5,-4.1911766E-4,1.3482023E-4,1.1748633E-3,1.5695067E-4,-2.910361E-4,2.0539152E-4,-9.6153846E-5,3.383978E-4,1.7429193E-4,5.3937006E-4,-3.345841E-4,-1.6570008E-5,1.0763922E-4,1.4723689E-5,-4.280822E-4,3.492647E-4,-4.206731E-5,7.057823E-4,-2.0176786E-4,5.3325686E-5,-6.26294E-4,-8.522727E-5,-2.0408162E-4,-4.0224506E-4,-2.534562E-4,1.5267175E-4,-1.9640016E-4,4.1423E-5,4.671968E-4,-2.008032E-5,-1.8585526E-4,1.8685566E-4,-6.465517E-5,5.904522E-4,4.074505E-5,2.8059862E-4,4.040404E-4,-2.0012314E-5,1.6413724E-4,-9.4696974E-5,2.2793687E-5,-9.3959556E-5,-1.09043445E-4,1.8781799E-5,-3.813078E-5,8.0171405E-5,1.1384038E-4,3.076004E-5,4.154979E-4,9.620842E-5,2.8437604E-5,-1.6570771E-4,-6.738987E-5,1.5507753E-4,1.5018773E-4,-3.3564473E-5,1.7585966E-4,-7.253385E-5,1.8684957E-4,-1.0989993E-4,2.4183797E-5,2.1881274E-4,5.033557E-4,-2.8250302E-4,-2.9686174E-5,3.1212243E-4,4.1256155E-4,-1.8808777E-4,-2.3170731E-4,-7.26837E-4,-4.5997612E-4,-1.0653409E-4,-6.760772E-4,-2.2596843E-4,4.3749998E-4,-5.4375E-4,4.110012E-4,-1.7953322E-5,-1.8755614E-4,3.3783785E-5,9.488448E-5,-5.788907E-5,2.3584906E-4,-2.672956E-4,2.074468E-4,-5.804312E-5,1.0845987E-4,-6.1363634E-4,2.1853884E-4,5.06993E-4,2.1102895E-4,-6.465517E-5,-8.097166E-5,-1.1746987E-3,-2.7495768E-4,1.7438615E-5,5.971103E-5,2.0068807E-4,5.258694E-4,3.205128E-5,1.250481E-5,3.7937742E-4,-6.5254234E-4,-6.493506E-6,2.9626253E-5,5.5926543E-4,2.0310539E-4,-4.048843E-4,4.234221E-4,1.2789575E-4,-1.3559322E-3,-3.3783782E-4,-1.2569832E-4,8.203125E-4,-9.246575E-4,1.25502E-4,3.3728752E-4,6.2074827E-4,-2.1739131E-4,7.0987653E-4,-5.960854E-4,-4.0441177E-5,1.0221465E-4,-6.744186E-4,-3.6764707E-4,3.128361E-4],"split_indices":[33,6,5,29,33,13,23,5,27,6,30,27,40,17,2,40,9,15,19,9,20,27,9,8,0,15,36,9,30,11,41,4,41,33,12,0,23,9,15,29,30,6,17,9,2,29,12,9,31,30,5,5,8,13,11,4,10,13,4,19,2,1,29,36,15,0,0,28,29,8,20,11,4,32,10,9,8,39,23,0,27,13,17,40,17,10,5,15,5,9,15,41,12,8,40,12,17,1,32,28,4,32,19,10,31,0,9,30,19,30,1,11,40,20,13,4,31,23,39,1,32,6,30,8,14,17,10,2,19,5,14,28,27,31,30,8,31,11,31,28,36,0,39,27,40,40,32,13,9,17,32,28,15,11,30,12,5,11,33,27,32,1,31,31,11,14,40,9,10,5,17,11,5,30,9,29,5,40,2,20,6,4,9,19,32,32,41,4,41,28,23,29,30,0,36,10,39,5,31,31,0,6,40,11,9,2,10,32,23,14,17,1,4,4,17,15,41,27,10,27,13,2,2,27,32,30,39,28,6,1,6,17,11,4,0,9,40,14,13,10,12,12,28,40,13,8,41,11,9,8,9,30,28,1,36,0,0,0,0,0,0,0,0,0,0,0,0,0,0,0,0,0,0,0,0,0,0,0,0,0,0,0,0,0,0,0,0,0,0,0,0,0,0,0,0,0,0,0,0,0,0,0,0,0,0,0,0,0,0,0,0,0,0,0,0,0,0,0,0,0,0,0,0,0,0,0,0,0,0,0,0,0,0,0,0,0,0,0,0,0,0,0,0,0,0,0,0,0,0,0,0,0,0,0,0,0,0,0,0,0,0,0,0,0,0,0,0,0,0,0,0,0,0,0,0,0,0,0,0,0,0,0,0,0,0,0,0,0,0,0,0,0,0,0,0,0,0,0,0,0,0,0,0,0,0,0,0,0,0,0,0,0,0,0,0,0,0,0,0,0,0,0,0,0,0,0,0,0,0,0,0,0,0,0,0,0,0,0,0,0,0,0,0,0,0,0,0,0,0,0,0,0,0,0,0,0,0,0,0,0,0,0,0,0,0,0,0,0,0,0,0,0,0,0,0,0,0,0,0,0,0,0,0,0,0,0,0,0,0,0,0,0,0,0,0,0,0,0,0,0,0,0,0,0,0,0,0,0,0,0,0],"split_type":[0,0,0,0,0,0,0,0,0,0,0,0,0,0,0,0,0,0,0,0,0,0,0,0,0,0,0,0,0,0,0,0,0,0,0,0,0,0,0,0,0,0,0,0,0,0,0,0,0,0,0,0,0,0,0,0,0,0,0,0,0,0,0,0,0,0,0,0,0,0,0,0,0,0,0,0,0,0,0,0,0,0,0,0,0,0,0,0,0,0,0,0,0,0,0,0,0,0,0,0,0,0,0,0,0,0,0,0,0,0,0,0,0,0,0,0,0,0,0,0,0,0,0,0,0,0,0,0,0,0,0,0,0,0,0,0,0,0,0,0,0,0,0,0,0,0,0,0,0,0,0,0,0,0,0,0,0,0,0,0,0,0,0,0,0,0,0,0,0,0,0,0,0,0,0,0,0,0,0,0,0,0,0,0,0,0,0,0,0,0,0,0,0,0,0,0,0,0,0,0,0,0,0,0,0,0,0,0,0,0,0,0,0,0,0,0,0,0,0,0,0,0,0,0,0,0,0,0,0,0,0,0,0,0,0,0,0,0,0,0,0,0,0,0,0,0,0,0,0,0,0,0,0,0,0,0,0,0,0,0,0,0,0,0,0,0,0,0,0,0,0,0,0,0,0,0,0,0,0,0,0,0,0,0,0,0,0,0,0,0,0,0,0,0,0,0,0,0,0,0,0,0,0,0,0,0,0,0,0,0,0,0,0,0,0,0,0,0,0,0,0,0,0,0,0,0,0,0,0,0,0,0,0,0,0,0,0,0,0,0,0,0,0,0,0,0,0,0,0,0,0,0,0,0,0,0,0,0,0,0,0,0,0,0,0,0,0,0,0,0,0,0,0,0,0,0,0,0,0,0,0,0,0,0,0,0,0,0,0,0,0,0,0,0,0,0,0,0,0,0,0,0,0,0,0,0,0,0,0,0,0,0,0,0,0,0,0,0,0,0,0,0,0,0,0,0,0,0,0,0,0,0,0,0,0,0,0,0,0,0,0,0,0,0,0,0,0,0,0,0,0,0,0,0,0,0,0,0,0,0,0,0,0,0,0,0,0,0,0,0,0,0,0,0,0,0,0,0,0,0,0,0,0,0,0,0,0,0,0,0,0,0,0,0,0,0,0,0,0,0,0,0,0,0,0,0,0,0,0,0,0],"sum_hessian":[1.923468E6,1.538674E6,3.84794E5,7.07988E5,8.30686E5,2.84642E5,1.00152E5,4.03647E5,3.04341E5,5.50204E5,2.80482E5,7.369E4,2.10952E5,3.8898E4,6.1254E4,3.31055E5,7.2592E4,2.63642E5,4.0699E4,2.39867E5,3.10337E5,1.54405E5,1.26077E5,4.9808E4,2.3882E4,1.02827E5,1.08125E5,1.5604E4,2.3294E4,4.5798E4,1.5456E4,2.33516E5,9.7539E4,4.9982E4,2.261E4,1.76E5,8.7642E4,1.732E4,2.3379E4,1.92336E5,4.7531E4,1.90091E5,1.20246E5,1.21966E5,3.2439E4,8.04E4,4.5677E4,1.0955E4,3.8853E4,8.466E3,1.5416E4,8.754E3,9.4073E4,6.2214E4,4.5911E4,6.279E3,9.325E3,1.392E4,9.374E3,3.4593E4,1.1205E4,5.628E3,9.828E3,7.8573E4,1.54943E5,2.3663E4,7.3876E4,1.6179E4,3.3803E4,3.594E3,1.9016E4,6.4272E4,1.11728E5,8.5378E4,2.264E3,1.2436E4,4.884E3,2.261E4,7.69E2,1.51119E5,4.1217E4,1.7775E4,2.9756E4,1.12513E5,7.7578E4,9.275E4,2.7496E4,1.04353E5,1.7613E4,1.1471E4,2.0968E4,3.7153E4,4.3247E4,3.6307E4,9.37E3,8.915E3,2.04E3,3.973E3,3.488E4,1.71E3,6.756E3,6.592E3,8.824E3,2.335E3,6.419E3,3.2007E4,6.2066E4,4.9843E4,1.2371E4,1.6451E4,2.946E4,4.63E3,1.649E3,7.483E3,1.842E3,9.706E3,4.214E3,6.018E3,3.356E3,2.9034E4,5.559E3,3.142E3,8.063E3,4.73E2,5.155E3,1.972E3,7.856E3,2.4876E4,5.3697E4,6.0614E4,9.4329E4,1.1638E4,1.2025E4,6.3544E4,1.0332E4,4.146E3,1.2033E4,9.083E3,2.472E4,3.036E3,5.58E2,5.488E3,1.3528E4,4.1037E4,2.3235E4,4.2023E4,6.9705E4,1.6611E4,6.8767E4,9.21E2,1.343E3,5.605E3,6.831E3,7.21E2,4.163E3,1.6929E4,5.681E3,1.96E2,5.73E2,9.1884E4,5.9235E4,2.8145E4,1.3072E4,1.3682E4,4.093E3,1.9248E4,1.0508E4,3.2844E4,7.9669E4,5.049E3,7.2529E4,7.4704E4,1.8046E4,2.3871E4,3.625E3,7.2742E4,3.1611E4,1.2061E4,5.552E3,9.764E3,1.707E3,1.456E3,1.9512E4,2.6741E4,1.0412E4,1.7089E4,2.6158E4,6.53E3,2.9777E4,3.613E3,5.757E3,7.075E3,1.84E3,4.04E2,1.636E3,1.504E3,2.469E3,6.425E3,2.8455E4,7.08E2,1.002E3,5.659E3,1.097E3,5.419E3,1.173E3,7.078E3,1.746E3,1.906E3,4.29E2,4.599E3,1.82E3,4.217E3,2.779E4,2.6967E4,3.5099E4,3.961E4,1.0233E4,7.332E3,5.039E3,9.173E3,7.278E3,4.91E3,2.455E4,9.7E2,3.66E3,7.23E2,9.26E2,6.115E3,1.368E3,4.78E2,1.364E3,2.964E3,6.742E3,7.93E2,3.421E3,5.69E2,5.449E3,2.781E3,5.75E2,4.764E3,2.427E4,2.191E3,3.368E3,1.448E3,1.694E3,3.575E3,4.488E3,1.68E2,3.05E2,5.69E2,4.586E3,3.33E2,1.639E3,1.974E3,5.882E3,5.4E3,1.9476E4,4.2691E4,1.1006E4,4.718E4,1.3434E4,7.6629E4,1.77E4,2.111E3,9.527E3,6.514E3,5.511E3,2.6314E4,3.723E4,1.818E3,8.514E3,1.603E3,2.543E3,6.042E3,5.991E3,6.769E3,2.314E3,1.2101E4,1.2619E4,4.34E2,2.602E3,4.46E2,1.12E2,4.75E3,7.38E2,2.106E3,1.1422E4,1.0573E4,3.0464E4,4.054E3,1.9181E4,3.0617E4,1.1406E4,1.3457E4,5.6248E4,4.126E3,1.2485E4,4.2228E4,2.6539E4,8.7E1,8.34E2,1.213E3,1.3E2,4.498E3,1.107E3,2.786E3,4.045E3,2.22E2,4.99E2,1.541E3,2.622E3,1.0469E4,6.46E3,3.308E3,2.373E3,1.47E2,4.9E1,2.8E2,2.93E2,3.9266E4,5.2618E4,4.2929E4,1.6306E4,2.4126E4,4.019E3,3.463E3,9.609E3,6.68E3,7.002E3,3.095E3,9.98E2,1.5486E4,3.762E3,8.429E3,2.079E3,2.7241E4,5.603E3,2.9656E4,5.0013E4,1.66E3,3.389E3,4.449E4,2.8039E4,1.5428E4,5.9276E4,1.2182E4,5.864E3,1.8545E4,5.326E3,1.43E3,2.195E3,4.7649E4,2.5093E4,1.28E4,1.8811E4,7.256E3,4.805E3,3.338E3,2.214E3,5.105E3,4.659E3,1.163E3,5.44E2,1.94E2,1.262E3,1.2216E4,7.296E3,2.1517E4,5.224E3,3.003E3,7.409E3,2.684E3,1.4405E4,2.1185E4,4.973E3,5.952E3,5.78E2,1.7155E4,1.2622E4,7.36E2,2.877E3,4.08E3,1.677E3,3.884E3,3.191E3,3.39E2,1.501E3,1.82E2,2.22E2,8.58E2,7.78E2,1.143E3,3.61E2,1.835E3,6.34E2,1.598E3,4.827E3,1.0288E4,1.8167E4,4.37E2,2.71E2,4.15E2,5.87E2,1.3E3,4.359E3,4.82E2,6.15E2,3.282E3,2.137E3,6.5E2,5.23E2,5.027E3,2.051E3,5.02E2,1.244E3,1.519E3,3.87E2,2.31E2,1.98E2,8.58E2,3.741E3,1.97E2,1.623E3,3.03E3,1.187E3,8.554E3,1.9236E4,5.937E3,2.103E4,6.162E3,2.8937E4,6.126E3,3.3484E4,1.425E3,8.808E3,2.988E3,4.344E3,3.041E3,1.998E3,2.396E3,6.777E3,5.728E3,1.55E3,2.113E3,2.797E3,4.134E3,2.0416E4,1.48E2,8.22E2,1.178E3,2.482E3,4.05E2,3.18E2,6.14E2,3.12E2,8.36E2,5.279E3,6.72E2,6.96E2,7.9E1,3.99E2,8.08E2,5.56E2,2.225E3,7.39E2,3.029E3,3.713E3,1.58E2,6.35E2,2.819E3,6.02E2,4.6E2,1.09E2,4.735E3,7.14E2,1.622E3,1.159E3,4.93E2,8.2E1,1.181E3,3.583E3,2.0347E4,3.923E3,1.178E3,1.013E3,2.598E3,7.7E2,2.94E2,1.154E3,1.096E3,5.98E2,3.187E3,3.88E2,3.453E3,1.035E3,5.8E1,1.1E2,1.78E2,1.27E2,7.2E1,4.97E2,2.823E3,1.763E3,9.1E1,2.42E2,2.8E2,1.359E3,1.76E3,2.14E2,3.05E2,5.577E3],"tree_param":{"num_deleted":"0","num_feature":"42","num_nodes":"511","size_leaf_vector":"0"}},{"base_weights":[6.028593E-5,-1.173353E-3,5.0011557E-3,1.3672222E-3,-3.161779E-3,3.2054498E-3,1.0099528E-2,-1.332463E-3,5.340256E-3,-4.935064E-3,-2.3976192E-4,6.20799E-3,9.261458E-4,6.3914126E-3,1.5582538E-2,8.809909E-5,-8.038487E-3,3.6564742E-3,1.0446182E-2,-3.826554E-3,-9.94806E-3,-4.1321293E-3,9.0044155E-4,7.7830977E-3,-8.9124136E-4,-1.3516966E-3,5.7341214E-3,2.1338386E-3,1.2535791E-2,2.733119E-2,1.3279341E-2,2.2166607E-3,-1.8689695E-3,-4.1495375E-3,-1.708613E-2,5.153871E-3,-1.8927566E-3,1.4904853E-2,4.7920668E-3,-8.231442E-3,-2.8107672E-3,-1.3093471E-2,-4.749535E-3,-2.230843E-3,-1.3343422E-2,-6.239313E-4,3.2633778E-3,9.21745E-3,2.9284745E-3,8.563284E-3,-6.9819037E-3,2.2745149E-3,-4.9950667E-3,7.7215503E-3,-1.0565787E-2,-6.5238173E-3,4.4677625E-3,-5.329381E-4,1.5555224E-2,-8.3896884E-4,3.6814384E-2,-1.2771555E-3,1.5045082E-2,4.4186874E-3,-1.0785131E-3,-3.2635827E-3,2.5130713E-3,-1.1202747E-2,-1.4739226E-3,-2.0770714E-2,2.6117796E-3,6.842877E-3,-4.3902574E-3,-1.6155291E-2,1.3920674E-3,4.7701444E-3,1.7572345E-2,-9.3748E-3,7.543603E-3,-2.63966E-3,-1.1045645E-2,1.4486501E-3,-3.727924E-3,-1.035434E-2,-2.3361338E-2,-2.5827456E-3,-1.5076993E-2,6.4247865E-3,-5.4247016E-3,-8.440912E-3,-2.9208811E-2,-2.8976423E-3,2.2016692E-3,-1.4822392E-4,6.2021106E-3,1.5033335E-2,7.823933E-3,-6.0785525E-3,5.955889E-3,2.0317687E-2,4.0617855E-3,-1.0530881E-2,1.0220349E-3,-1.2594314E-4,1.2101465E-2,-7.745247E-3,5.1194807E-3,5.2344967E-3,1.7201088E-2,1.0982104E-2,-1.8357707E-2,-1.2262513E-2,2.005168E-2,1.5933135E-3,1.5830446E-2,-1.2127879E-2,1.2058809E-2,9.980216E-3,2.3784317E-2,-2.3730537E-2,1.40006635E-2,2.9410957E-3,4.3649197E-2,9.979151E-3,-1.5832532E-2,8.675783E-3,2.1026848E-2,1.3189745E-3,8.709884E-3,5.143571E-3,-3.6447453E-3,-4.741231E-3,6.7862595E-4,4.0850877E-3,-8.701974E-3,-5.858361E-3,-2.1016937E-2,-3.5543286E-3,7.3440964E-3,-1.5245146E-2,-3.4733243E-2,1.2710404E-2,-1.7743196E-2,9.947678E-3,3.4062497E-3,-8.398566E-3,5.544628E-3,1.2277977E-2,-2.1504067E-2,1.3400902E-2,-7.0915703E-4,-8.408785E-3,1.4219881E-2,6.8329745E-3,2.0219078E-2,-3.560565E-3,-3.7235923E-2,1.0433866E-2,-2.3856487E-3,-1.174729E-2,1.4918494E-3,-8.016217E-3,-1.555183E-2,-1.7939163E-3,6.418202E-3,-4.6298853E-3,8.0797606E-4,-1.3339755E-2,-2.7128698E-3,-2.82407E-2,2.5777079E-3,-8.190442E-3,2.4958658E-3,-2.2817101E-2,1.3767206E-3,1.7314307E-2,1.213572E-4,-2.98998E-3,-1.57029E-2,-1.624735E-3,-1.8862076E-2,-8.672649E-2,-2.1303521E-2,1.3099744E-2,-3.3995232E-3,7.0961984E-4,8.376855E-3,4.592227E-3,-4.850277E-3,2.471302E-3,1.08255595E-2,2.2597287E-2,1.1399836E-2,6.252853E-3,1.4495086E-2,5.663483E-3,-1.2539145E-2,-1.6472922E-3,1.10473195E-2,6.9634646E-2,1.33692585E-2,1.0205924E-2,-7.217639E-3,-3.0125665E-2,-5.384184E-3,1.4731524E-2,-9.94244E-3,-2.716656E-3,8.419536E-3,-3.2644984E-3,1.6647005E-2,-9.131419E-3,3.6643483E-3,1.12421205E-2,-5.7784053E-3,1.5368406E-3,8.632225E-3,1.14386445E-2,4.315028E-2,3.0797476E-2,-1.1862552E-2,-3.150513E-2,-7.9974E-3,-4.0656295E-2,-7.495588E-3,3.6192115E-2,-2.7426146E-2,-6.7871013E-3,6.2904814E-3,3.871874E-2,5.2445848E-3,-3.2006815E-2,9.264169E-3,-1.2814987E-2,2.2413792E-2,6.6455924E-3,3.6062904E-2,-1.8366909E-3,3.0729303E-2,-1.21197656E-1,-1.2805731E-2,-1.7405499E-2,2.8350532E-2,-2.3757486E-2,3.8356975E-2,4.9581114E-2,-3.8626038E-3,2.4300516E-2,-1.1187839E-2,-2.1933991E-2,5.5379957E-2,1.201381E-2,-9.6012475E-3,4.1897636E-2,1.7752651E-2,6.149793E-3,-1.1525633E-3,6.219245E-3,1.8460015E-2,1.6337462E-3,1.8164536E-2,7.614849E-4,-7.7960943E-3,-1.0753626E-2,-3.4254044E-3,4.371234E-3,-6.537345E-3,6.044573E-3,-4.6000495E-3,-3.4518175E-2,-3.1219982E-3,2.6578172E-3,-1.7361058E-2,4.9408223E-3,-2.8694835E-2,-1.0987881E-2,-2.8843287E-4,2.6670452E-2,1.4707354E-3,-9.602186E-3,-3.227231E-2,-2.676033E-2,-5.7224378E-2,3.5202797E-3,5.7088047E-2,3.31723E-2,-3.138595E-2,1.6232096E-3,1.1825465E-2,8.273859E-3,-2.3744088E-4,-5.036525E-3,-2.3366526E-2,-2.141128E-3,3.6627214E-2,3.2884583E-2,-3.779912E-2,9.438163E-3,-2.611417E-2,2.8765237E-2,3.5418156E-3,-5.251271E-3,4.454986E-3,-3.21891E-2,4.4803348E-4,3.1144263E-2,6.7423903E-3,1.9053215E-2,-5.068381E-3,2.2034256E-2,6.308978E-5,-1.3484471E-2,2.2518625E-2,-7.162593E-2,-1.6635735E-2,7.340564E-3,2.3699965E-2,-8.796493E-3,1.4788107E-2,-1.7419927E-2,-3.0522428E-3,7.177999E-3,-3.3678543E-3,-1.302888E-2,-5.2201473E-3,-7.7198693E-3,-2.08524E-2,-4.048247E-3,1.1185396E-2,3.1343172E-3,2.1428397E-2,-8.85128E-3,-3.6194783E-3,-3.793047E-3,3.3029595E-3,-1.5645044E-2,-6.7182044E-3,-5.603326E-3,1.7885456E-2,-1.0834542E-2,-3.5470616E-2,1.2950872E-2,-5.0809357E-2,-1.8036494E-3,-1.4703267E-2,-3.8649114E-3,8.96035E-3,-1.7610962E-2,-5.8286797E-2,1.1107411E-2,-2.23606E-2,1.2034422E-2,3.563087E-2,1.5624301E-2,-3.8045826E-3,-5.08632E-3,6.386565E-3,-9.6587865E-3,-2.3685915E-2,-2.863468E-2,2.357003E-3,-1.0212212E-2,-5.4045305E-2,-2.1958968E-1,-7.309474E-2,-3.1373706E-2,1.134918E-2,2.6923522E-2,-2.3053743E-2,-6.9706454E-3,-1.3773355E-3,-5.795974E-3,3.4529828E-3,-2.4466747E-3,1.1058589E-2,-1.3593264E-3,8.926972E-3,-1.0503376E-2,7.708465E-4,-1.5832785E-3,5.151227E-3,1.4241862E-2,3.544136E-3,-7.74974E-3,2.7322348E-2,6.6214856E-3,2.0151822E-2,3.6842613E-3,1.0368121E-2,1.3312382E-3,1.7814284E-2,-2.3827054E-4,5.410147E-2,-3.065296E-2,-6.760393E-3,1.4625148E-2,-8.15527E-3,6.348626E-3,2.2858681E-2,1.4228299E-2,1.4834915E-1,2.1308253E-2,-1.7306646E-2,1.7767478E-2,-9.25296E-4,-2.0403134E-2,1.4054762E-2,-2.0781988E-2,-6.264114E-2,-1.2304579E-3,-2.4295446E-2,3.1662274E-2,-5.10847E-4,-1.5415401E-2,1.7576525E-2,-7.6973364E-3,2.2290165E-3,-9.722401E-3,1.3336286E-2,-1.4409776E-2,1.4428546E-2,1.2261301E-4,2.1270562E-2,-1.54441185E-2,-6.8184994E-3,5.7054367E-2,1.1422957E-3,5.1767915E-3,2.6321068E-2,2.177251E-2,-9.8275505E-3,1.5430331E-2,-2.1743713E-4,-1.7780587E-3,1.2256737E-2,-5.3504827E-3,1.8792726E-2,8.063742E-2,3.155758E-2,1.0333146E-2,6.1493654E-2,3.9154646E-4,-8.173824E-2,-4.966859E-2,-1.4369816E-2,2.5386317E-3,-2.6007626E-2,-2.8744001E-2,-9.61391E-2,-1.168149E-2,1.845238E-2,7.773517E-2,2.0412026E-2,-7.657834E-2,1.034885E-2,-1.1628976E-2,2.3912624E-2,9.957878E-3,-9.83898E-3,8.214898E-2,2.4191113E-2,-3.0221054E-2,1.4265847E-2,-2.1310544E-2,-6.991595E-2,-5.3000588E-2,2.0033767E-2,1.8948032E-2,-4.2822603E-2,5.5187214E-2,2.4415492E-3,-6.0655833E-3,1.6151927E-2,1.5860587E-2,5.28489E-2,8.612939E-3,-4.5397576E-2,4.330477E-2,2.2087432E-2,4.1689344E-2,-1.7856027E-1,1.3424526E-2,-5.095517E-2,2.2620462E-2,-6.65465E-2,8.702137E-2,1.7050045E-2,6.0317207E-2,-4.249975E-2,1.8314436E-2,1.00577824E-1,4.089738E-2,8.191838E-2,3.366079E-2,-4.6803582E-2,4.0277373E-2,-1.29005555E-2,1.3480683E-2,-5.5437744E-2,9.573919E-3,-3.3143703E-2,9.713952E-2,-7.032437E-2,1.8436259E-2,2.8713234E-3,1.3357885E-2,-2.808228E-2,2.9887868E-2,8.1395335E-2,1.2498965E-2,3.0645583E-2],"categories":[],"categories_nodes":[],"categories_segments":[],"categories_sizes":[],"default_left":[1,1,1,1,1,1,1,1,1,1,1,1,1,1,1,1,1,1,1,1,1,1,1,1,1,1,1,1,1,1,1,1,1,1,1,1,1,1,1,1,1,1,1,1,1,1,1,1,1,1,1,1,1,1,1,1,1,1,1,1,1,1,1,1,1,1,1,1,1,1,1,1,1,1,1,1,1,1,1,1,1,1,1,1,1,1,1,1,1,1,1,1,1,1,1,1,1,1,1,1,1,1,1,1,1,1,1,1,1,1,1,1,1,1,1,1,1,1,1,1,1,1,1,1,1,1,1,1,1,1,1,1,1,1,1,1,1,1,1,1,1,1,1,1,1,1,1,1,1,1,1,1,1,1,1,1,1,1,1,1,1,1,1,1,1,1,1,1,1,1,1,1,1,1,1,1,1,1,1,1,1,1,1,1,1,1,1,1,1,1,1,1,1,1,1,1,1,1,1,1,1,1,1,1,1,1,1,1,1,1,1,1,1,1,1,1,1,1,1,1,1,1,1,1,1,1,1,1,1,1,1,1,1,1,1,1,1,1,1,1,1,1,1,1,1,1,1,1,1,1,1,1,1,1,1,0,0,0,0,0,0,0,0,0,0,0,0,0,0,0,0,0,0,0,0,0,0,0,0,0,0,0,0,0,0,0,0,0,0,0,0,0,0,0,0,0,0,0,0,0,0,0,0,0,0,0,0,0,0,0,0,0,0,0,0,0,0,0,0,0,0,0,0,0,0,0,0,0,0,0,0,0,0,0,0,0,0,0,0,0,0,0,0,0,0,0,0,0,0,0,0,0,0,0,0,0,0,0,0,0,0,0,0,0,0,0,0,0,0,0,0,0,0,0,0,0,0,0,0,0,0,0,0,0,0,0,0,0,0,0,0,0,0,0,0,0,0,0,0,0,0,0,0,0,0,0,0,0,0,0,0,0,0,0,0,0,0,0,0,0,0,0,0,0,0,0,0,0,0,0,0,0,0,0,0,0,0,0,0,0,0,0,0,0,0,0,0,0,0,0,0,0,0,0,0,0,0,0,0,0,0,0,0,0,0,0,0,0,0,0,0,0,0,0,0,0,0,0,0,0,0,0,0,0,0,0,0,0,0,0,0,0,0,0,0,0,0,0,0,0,0,0,0,0,0,0,0,0,0,0,0],"id":1,"left_children":[1,3,5,7,9,11,13,15,17,19,21,23,25,27,29,31,33,35,37,39,41,43,45,47,49,51,53,55,57,59,61,63,65,67,69,71,73,75,77,79,81,83,85,87,89,91,93,95,97,99,101,103,105,107,109,111,113,115,117,119,121,123,125,127,129,131,133,135,137,139,141,143,145,147,149,151,153,155,157,159,161,163,165,167,169,171,173,175,177,179,181,183,185,187,189,191,193,195,197,199,201,203,205,207,209,211,213,215,217,219,221,223,225,227,229,231,233,235,237,239,241,243,245,247,249,251,253,255,257,259,261,263,265,267,269,271,273,275,277,279,281,283,285,287,289,291,293,295,297,299,301,303,305,307,309,311,313,315,317,319,321,323,325,327,329,331,333,335,337,339,341,343,345,347,349,351,353,355,357,359,361,363,365,367,369,371,373,375,377,379,381,383,385,387,389,391,393,395,397,399,401,403,405,407,409,411,413,415,417,419,421,423,425,427,429,431,433,435,437,439,441,443,445,447,449,451,453,455,457,459,461,463,465,467,469,471,473,475,477,479,481,483,485,487,489,491,493,495,497,499,501,503,505,507,509,-1,-1,-1,-1,-1,-1,-1,-1,-1,-1,-1,-1,-1,-1,-1,-1,-1,-1,-1,-1,-1,-1,-1,-1,-1,-1,-1,-1,-1,-1,-1,-1,-1,-1,-1,-1,-1,-1,-1,-1,-1,-1,-1,-1,-1,-1,-1,-1,-1,-1,-1,-1,-1,-1,-1,-1,-1,-1,-1,-1,-1,-1,-1,-1,-1,-1,-1,-1,-1,-1,-1,-1,-1,-1,-1,-1,-1,-1,-1,-1,-1,-1,-1,-1,-1,-1,-1,-1,-1,-1,-1,-1,-1,-1,-1,-1,-1,-1,-1,-1,-1,-1,-1,-1,-1,-1,-1,-1,-1,-1,-1,-1,-1,-1,-1,-1,-1,-1,-1,-1,-1,-1,-1,-1,-1,-1,-1,-1,-1,-1,-1,-1,-1,-1,-1,-1,-1,-1,-1,-1,-1,-1,-1,-1,-1,-1,-1,-1,-1,-1,-1,-1,-1,-1,-1,-1,-1,-1,-1,-1,-1,-1,-1,-1,-1,-1,-1,-1,-1,-1,-1,-1,-1,-1,-1,-1,-1,-1,-1,-1,-1,-1,-1,-1,-1,-1,-1,-1,-1,-1,-1,-1,-1,-1,-1,-1,-1,-1,-1,-1,-1,-1,-1,-1,-1,-1,-1,-1,-1,-1,-1,-1,-1,-1,-1,-1,-1,-1,-1,-1,-1,-1,-1,-1,-1,-1,-1,-1,-1,-1,-1,-1,-1,-1,-1,-1,-1,-1,-1,-1,-1,-1,-1,-1,-1,-1,-1,-1,-1,-1,-1,-1,-1,-1,-1,-1],"loss_changes":[1.1718335E1,7.7717214E0,3.5166006E0,7.244672E0,4.471635E0,1.9440506E0,2.0340796E0,3.8311453E0,2.3493452E0,2.9843931E0,1.4465016E0,1.370748E0,1.768528E0,1.561394E0,1.0918655E0,1.3824676E0,2.4734926E0,1.7076249E0,1.7083488E0,1.967875E0,1.5901709E0,1.2932225E0,9.0801114E-1,6.9856024E-1,1.2818866E0,1.447636E0,1.681734E0,7.124632E-1,9.6402E-1,1.7671824E0,8.6749554E-1,1.1534863E0,1.0566314E0,9.278658E-1,1.5338578E0,2.6088243E0,2.0459583E0,1.0242157E0,1.1648123E0,1.2969027E0,1.3961885E0,1.7038803E0,8.203847E-1,1.6922041E0,9.82429E-1,9.84467E-1,9.910799E-1,6.27522E-1,6.2400997E-1,4.6141964E-1,3.845967E-1,1.295425E0,1.520424E0,1.0907772E0,9.4749045E-1,1.1420784E0,9.0704864E-1,6.6970485E-1,9.101968E-1,5.666162E-1,1.1456528E0,5.9850085E-1,1.1465788E0,1.2674862E0,1.0168012E0,7.640188E-1,7.359569E-1,7.0911694E-1,6.539724E-1,1.3729887E0,6.8493676E-1,1.4671183E0,9.6907735E-1,1.2435439E0,8.956892E-1,9.8346704E-1,8.5241985E-1,7.871443E-1,7.180815E-1,1.0382941E0,7.482867E-1,1.0203887E0,1.2031212E0,1.0911765E0,1.6149278E0,8.631145E-1,8.0974543E-1,1.1325111E0,1.1188757E0,6.8564606E-1,1.3540492E0,6.8176043E-1,6.2951887E-1,1.0197161E0,9.160266E-1,4.1111708E-1,6.547146E-1,4.3679997E-1,6.630226E-1,8.266303E-1,4.3723282E-1,9.457959E-1,6.2546664E-1,9.771446E-1,7.530706E-1,6.796799E-1,7.7973306E-1,4.6050668E-1,1.4373944E0,6.789257E-1,5.642079E-1,8.331868E-1,1.0201888E0,8.725899E-1,1.35833E0,1.0157963E0,5.666787E-1,1.0288596E0,1.4260478E0,6.9696295E-1,4.565758E-1,7.87612E-1,1.1607919E0,6.247406E-1,6.933733E-1,8.895687E-1,1.059885E0,6.6058666E-1,9.703734E-1,8.497863E-1,8.246917E-1,7.546904E-1,9.52854E-1,6.2308836E-1,7.3917615E-1,8.5777533E-1,9.502096E-1,7.002243E-1,7.7240086E-1,1.2254283E0,9.0349627E-1,9.080498E-1,7.6860464E-1,1.1291752E0,1.157546E0,8.7243104E-1,1.6713753E0,1.337578E0,9.817996E-1,8.0061257E-1,7.086565E-1,6.9463235E-1,5.8180225E-1,8.6283123E-1,8.803835E-1,1.0412271E0,5.931901E-1,7.9510474E-1,6.213044E-1,4.246745E-1,5.2458143E-1,4.5945263E-1,9.1476345E-1,1.1212754E0,1.2323745E0,1.0462399E0,5.5995846E-1,5.2492046E-1,8.0023897E-1,1.3510656E0,1.1198733E0,5.990817E-1,6.5399355E-1,7.9744387E-1,4.7029376E-1,5.8456635E-1,6.361451E-1,7.1063197E-1,4.1293836E-1,6.278166E-1,1.1610761E0,6.359656E-1,8.6284757E-1,1.2915468E0,5.9451294E-1,9.821516E-1,3.8595462E-1,5.8772695E-1,7.298252E-1,3.1938082E-1,5.898981E-1,6.9652104E-1,4.227928E-1,5.3449845E-1,5.202775E-1,5.8432925E-1,3.8855666E-1,7.276569E-1,5.691531E-1,1.2975515E0,5.1617765E-1,3.4376395E-1,6.243706E-1,5.914395E-1,5.8361286E-1,4.7717786E-1,3.4848174E-1,8.34306E-1,9.160288E-1,4.8569927E-1,6.356578E-1,5.5936646E-1,6.268766E-1,6.8415827E-1,4.6920228E-1,4.2784774E-1,7.207823E-1,9.7179854E-1,7.566614E-1,5.037905E-1,5.968477E-1,5.676044E-1,4.4011098E-1,5.821574E-1,5.7305443E-1,6.493776E-1,6.283653E-1,1.1837833E0,8.4036815E-1,1.1166663E0,1.2274196E0,5.005022E-1,7.728837E-1,6.1748815E-1,1.016395E0,1.2679167E0,4.539162E-1,7.787746E-1,6.842432E-1,6.2412316E-1,5.9207976E-1,6.2698454E-1,4.593076E-1,7.5104475E-1,4.4460684E-1,1.0246887E0,7.3954684E-1,7.309833E-1,9.0894175E-1,5.18807E-1,6.682503E-1,7.238122E-1,9.5591766E-1,9.956167E-1,9.0849066E-1,0E0,0E0,0E0,0E0,0E0,0E0,0E0,0E0,0E0,0E0,0E0,0E0,0E0,0E0,0E0,0E0,0E0,0E0,0E0,0E0,0E0,0E0,0E0,0E0,0E0,0E0,0E0,0E0,0E0,0E0,0E0,0E0,0E0,0E0,0E0,0E0,0E0,0E0,0E0,0E0,0E0,0E0,0E0,0E0,0E0,0E0,0E0,0E0,0E0,0E0,0E0,0E0,0E0,0E0,0E0,0E0,0E0,0E0,0E0,0E0,0E0,0E0,0E0,0E0,0E0,0E0,0E0,0E0,0E0,0E0,0E0,0E0,0E0,0E0,0E0,0E0,0E0,0E0,0E0,0E0,0E0,0E0,0E0,0E0,0E0,0E0,0E0,0E0,0E0,0E0,0E0,0E0,0E0,0E0,0E0,0E0,0E0,0E0,0E0,0E0,0E0,0E0,0E0,0E0,0E0,0E0,0E0,0E0,0E0,0E0,0E0,0E0,0E0,0E0,0E0,0E0,0E0,0E0,0E0,0E0,0E0,0E0,0E0,0E0,0E0,0E0,0E0,0E0,0E0,0E0,0E0,0E0,0E0,0E0,0E0,0E0,0E0,0E0,0E0,0E0,0E0,0E0,0E0,0E0,0E0,0E0,0E0,0E0,0E0,0E0,0E0,0E0,0E0,0E0,0E0,0E0,0E0,0E0,0E0,0E0,0E0,0E0,0E0,0E0,0E0,0E0,0E0,0E0,0E0,0E0,0E0,0E0,0E0,0E0,0E0,0E0,0E0,0E0,0E0,0E0,0E0,0E0,0E0,0E0,0E0,0E0,0E0,0E0,0E0,0E0,0E0,0E0,0E0,0E0,0E0,0E0,0E0,0E0,0E0,0E0,0E0,0E0,0E0,0E0,0E0,0E0,0E0,0E0,0E0,0E0,0E0,0E0,0E0,0E0,0E0,0E0,0E0,0E0,0E0,0E0,0E0,0E0,0E0,0E0,0E0,0E0,0E0,0E0,0E0,0E0,0E0,0E0,0E0,0E0,0E0,0E0,0E0,0E0,0E0,0E0,0E0,0E0,0E0,0E0,0E0,0E0,0E0,0E0,0E0,0E0,0E0,0E0,0E0,0E0,0E0,0E0],"parents":[2147483647,0,0,1,1,2,2,3,3,4,4,5,5,6,6,7,7,8,8,9,9,10,10,11,11,12,12,13,13,14,14,15,15,16,16,17,17,18,18,19,19,20,20,21,21,22,22,23,23,24,24,25,25,26,26,27,27,28,28,29,29,30,30,31,31,32,32,33,33,34,34,35,35,36,36,37,37,38,38,39,39,40,40,41,41,42,42,43,43,44,44,45,45,46,46,47,47,48,48,49,49,50,50,51,51,52,52,53,53,54,54,55,55,56,56,57,57,58,58,59,59,60,60,61,61,62,62,63,63,64,64,65,65,66,66,67,67,68,68,69,69,70,70,71,71,72,72,73,73,74,74,75,75,76,76,77,77,78,78,79,79,80,80,81,81,82,82,83,83,84,84,85,85,86,86,87,87,88,88,89,89,90,90,91,91,92,92,93,93,94,94,95,95,96,96,97,97,98,98,99,99,100,100,101,101,102,102,103,103,104,104,105,105,106,106,107,107,108,108,109,109,110,110,111,111,112,112,113,113,114,114,115,115,116,116,117,117,118,118,119,119,120,120,121,121,122,122,123,123,124,124,125,125,126,126,127,127,128,128,129,129,130,130,131,131,132,132,133,133,134,134,135,135,136,136,137,137,138,138,139,139,140,140,141,141,142,142,143,143,144,144,145,145,146,146,147,147,148,148,149,149,150,150,151,151,152,152,153,153,154,154,155,155,156,156,157,157,158,158,159,159,160,160,161,161,162,162,163,163,164,164,165,165,166,166,167,167,168,168,169,169,170,170,171,171,172,172,173,173,174,174,175,175,176,176,177,177,178,178,179,179,180,180,181,181,182,182,183,183,184,184,185,185,186,186,187,187,188,188,189,189,190,190,191,191,192,192,193,193,194,194,195,195,196,196,197,197,198,198,199,199,200,200,201,201,202,202,203,203,204,204,205,205,206,206,207,207,208,208,209,209,210,210,211,211,212,212,213,213,214,214,215,215,216,216,217,217,218,218,219,219,220,220,221,221,222,222,223,223,224,224,225,225,226,226,227,227,228,228,229,229,230,230,231,231,232,232,233,233,234,234,235,235,236,236,237,237,238,238,239,239,240,240,241,241,242,242,243,243,244,244,245,245,246,246,247,247,248,248,249,249,250,250,251,251,252,252,253,253,254,254],"right_children":[2,4,6,8,10,12,14,16,18,20,22,24,26,28,30,32,34,36,38,40,42,44,46,48,50,52,54,56,58,60,62,64,66,68,70,72,74,76,78,80,82,84,86,88,90,92,94,96,98,100,102,104,106,108,110,112,114,116,118,120,122,124,126,128,130,132,134,136,138,140,142,144,146,148,150,152,154,156,158,160,162,164,166,168,170,172,174,176,178,180,182,184,186,188,190,192,194,196,198,200,202,204,206,208,210,212,214,216,218,220,222,224,226,228,230,232,234,236,238,240,242,244,246,248,250,252,254,256,258,260,262,264,266,268,270,272,274,276,278,280,282,284,286,288,290,292,294,296,298,300,302,304,306,308,310,312,314,316,318,320,322,324,326,328,330,332,334,336,338,340,342,344,346,348,350,352,354,356,358,360,362,364,366,368,370,372,374,376,378,380,382,384,386,388,390,392,394,396,398,400,402,404,406,408,410,412,414,416,418,420,422,424,426,428,430,432,434,436,438,440,442,444,446,448,450,452,454,456,458,460,462,464,466,468,470,472,474,476,478,480,482,484,486,488,490,492,494,496,498,500,502,504,506,508,510,-1,-1,-1,-1,-1,-1,-1,-1,-1,-1,-1,-1,-1,-1,-1,-1,-1,-1,-1,-1,-1,-1,-1,-1,-1,-1,-1,-1,-1,-1,-1,-1,-1,-1,-1,-1,-1,-1,-1,-1,-1,-1,-1,-1,-1,-1,-1,-1,-1,-1,-1,-1,-1,-1,-1,-1,-1,-1,-1,-1,-1,-1,-1,-1,-1,-1,-1,-1,-1,-1,-1,-1,-1,-1,-1,-1,-1,-1,-1,-1,-1,-1,-1,-1,-1,-1,-1,-1,-1,-1,-1,-1,-1,-1,-1,-1,-1,-1,-1,-1,-1,-1,-1,-1,-1,-1,-1,-1,-1,-1,-1,-1,-1,-1,-1,-1,-1,-1,-1,-1,-1,-1,-1,-1,-1,-1,-1,-1,-1,-1,-1,-1,-1,-1,-1,-1,-1,-1,-1,-1,-1,-1,-1,-1,-1,-1,-1,-1,-1,-1,-1,-1,-1,-1,-1,-1,-1,-1,-1,-1,-1,-1,-1,-1,-1,-1,-1,-1,-1,-1,-1,-1,-1,-1,-1,-1,-1,-1,-1,-1,-1,-1,-1,-1,-1,-1,-1,-1,-1,-1,-1,-1,-1,-1,-1,-1,-1,-1,-1,-1,-1,-1,-1,-1,-1,-1,-1,-1,-1,-1,-1,-1,-1,-1,-1,-1,-1,-1,-1,-1,-1,-1,-1,-1,-1,-1,-1,-1,-1,-1,-1,-1,-1,-1,-1,-1,-1,-1,-1,-1,-1,-1,-1,-1,-1,-1,-1,-1,-1,-1,-1,-1,-1,-1,-1,-1],"split_conditions":[3.5E0,1.5E0,3.5E0,2.5E0,2.5E0,2.5E0,2.5E0,3.5E0,3.5E0,3.5E0,5E-1,3.5E0,2.5E0,2.5E0,5E-1,1.5E0,3.5E0,3.5E0,1.5E0,5E-1,2.5E0,3.5E0,2.5E0,3.5E0,1.5E0,2.5E0,3.5E0,1.5E0,5E-1,1.5E0,5E-1,2.5E0,3.5E0,5E-1,3.5E0,3.5E0,5E-1,5E-1,5E-1,1.5E0,5E-1,3.5E0,3.5E0,1.5E0,2.5E0,2.5E0,1.5E0,5E-1,1.5E0,5E-1,2.5E0,3.5E0,3.5E0,2.5E0,5E-1,3.5E0,3.5E0,1.5E0,2.5E0,5E-1,1.5E0,3.5E0,3.5E0,2.5E0,1.5E0,2.5E0,3.5E0,2.5E0,3.5E0,2.5E0,1.5E0,1.5E0,2.5E0,5E-1,5E-1,1.5E0,5E-1,3.5E0,3.5E0,5E-1,2.5E0,2.5E0,2.5E0,2.5E0,3.5E0,2.5E0,3.5E0,1.5E0,3.5E0,3.5E0,5E-1,5E-1,3.5E0,3.5E0,3.5E0,5E-1,3.5E0,1.5E0,1.5E0,5E-1,2.5E0,5E-1,2.5E0,3.5E0,5E-1,2.5E0,2.5E0,1.5E0,3.5E0,3.5E0,1.5E0,5E-1,3.5E0,1.5E0,5E-1,2.5E0,5E-1,2.5E0,5E-1,5E-1,1.5E0,1.5E0,2.5E0,2.5E0,3.5E0,3.5E0,5E-1,5E-1,3.5E0,3.5E0,2.5E0,5E-1,2.5E0,3.5E0,5E-1,2.5E0,5E-1,1.5E0,5E-1,3.5E0,3.5E0,3.5E0,5E-1,5E-1,1.5E0,3.5E0,3.5E0,2.5E0,5E-1,1.5E0,3.5E0,1.5E0,5E-1,2.5E0,2.5E0,3.5E0,1.5E0,3.5E0,3.5E0,2.5E0,2.5E0,1.5E0,5E-1,3.5E0,3.5E0,5E-1,1.5E0,2.5E0,3.5E0,5E-1,3.5E0,2.5E0,2.5E0,3.5E0,3.5E0,3.5E0,5E-1,3.5E0,2.5E0,5E-1,3.5E0,5E-1,2.5E0,3.5E0,1.5E0,1.5E0,5E-1,1.5E0,1.5E0,1.5E0,2.5E0,5E-1,2.5E0,2.5E0,5E-1,3.5E0,2.5E0,1.5E0,3.5E0,2.5E0,3.5E0,2.5E0,2.5E0,3.5E0,3.5E0,2.5E0,3.5E0,1.5E0,5E-1,2.5E0,5E-1,1.5E0,5E-1,2.5E0,5E-1,5E-1,5E-1,1.5E0,1.5E0,3.5E0,3.5E0,2.5E0,2.5E0,3.5E0,3.5E0,1.5E0,1.5E0,3.5E0,3.5E0,1.5E0,5E-1,3.5E0,5E-1,1.5E0,2.5E0,2.5E0,2.5E0,1.5E0,1.5E0,5E-1,2.5E0,2.5E0,5E-1,5E-1,2.5E0,3.5E0,2.5E0,2.5E0,2.5E0,1.5E0,3.5E0,2.5E0,2.5E0,3.5E0,2.5E0,6.149793E-5,-1.15256325E-5,6.219245E-5,1.8460014E-4,1.6337463E-5,1.8164536E-4,7.614849E-6,-7.796094E-5,-1.0753626E-4,-3.4254044E-5,4.371234E-5,-6.5373446E-5,6.044573E-5,-4.6000492E-5,-3.4518173E-4,-3.121998E-5,2.6578171E-5,-1.7361058E-4,4.940822E-5,-2.8694834E-4,-1.09878805E-4,-2.8843288E-6,2.667045E-4,1.4707354E-5,-9.602186E-5,-3.227231E-4,-2.676033E-4,-5.7224376E-4,3.5202796E-5,5.708805E-4,3.31723E-4,-3.138595E-4,1.6232096E-5,1.1825465E-4,8.273858E-5,-2.3744087E-6,-5.0365248E-5,-2.3366525E-4,-2.141128E-5,3.6627214E-4,3.288458E-4,-3.7799118E-4,9.438163E-5,-2.611417E-4,2.8765236E-4,3.5418154E-5,-5.251271E-5,4.4549863E-5,-3.21891E-4,4.4803346E-6,3.1144262E-4,6.7423905E-5,1.9053214E-4,-5.0683808E-5,2.2034255E-4,6.308978E-7,-1.348447E-4,2.2518625E-4,-7.162593E-4,-1.6635735E-4,7.340564E-5,2.3699965E-4,-8.796492E-5,1.4788107E-4,-1.7419926E-4,-3.0522428E-5,7.1779985E-5,-3.367854E-5,-1.302888E-4,-5.220147E-5,-7.719869E-5,-2.08524E-4,-4.0482468E-5,1.1185396E-4,3.134317E-5,2.1428397E-4,-8.85128E-5,-3.6194782E-5,-3.793047E-5,3.3029595E-5,-1.5645043E-4,-6.7182045E-5,-5.603326E-5,1.7885455E-4,-1.0834542E-4,-3.5470616E-4,1.2950871E-4,-5.0809357E-4,-1.8036493E-5,-1.4703267E-4,-3.8649112E-5,8.9603505E-5,-1.761096E-4,-5.8286794E-4,1.1107411E-4,-2.23606E-4,1.20344215E-4,3.563087E-4,1.56243E-4,-3.8045826E-5,-5.08632E-5,6.386565E-5,-9.6587864E-5,-2.3685915E-4,-2.863468E-4,2.357003E-5,-1.0212212E-4,-5.40453E-4,-2.1958968E-3,-7.309474E-4,-3.1373705E-4,1.134918E-4,2.6923523E-4,-2.3053742E-4,-6.970645E-5,-1.3773355E-5,-5.7959736E-5,3.452983E-5,-2.4466746E-5,1.1058589E-4,-1.3593264E-5,8.926971E-5,-1.0503376E-4,7.708465E-6,-1.5832786E-5,5.151227E-5,1.4241862E-4,3.544136E-5,-7.7497396E-5,2.7322347E-4,6.621485E-5,2.0151821E-4,3.684261E-5,1.036812E-4,1.3312381E-5,1.7814284E-4,-2.3827054E-6,5.410147E-4,-3.065296E-4,-6.760393E-5,1.4625148E-4,-8.1552695E-5,6.348626E-5,2.2858681E-4,1.42283E-4,1.4834915E-3,2.1308252E-4,-1.7306647E-4,1.7767477E-4,-9.25296E-6,-2.0403133E-4,1.4054762E-4,-2.0781987E-4,-6.2641135E-4,-1.2304579E-5,-2.4295445E-4,3.1662273E-4,-5.1084703E-6,-1.5415401E-4,1.7576525E-4,-7.697336E-5,2.2290165E-5,-9.722401E-5,1.3336286E-4,-1.4409775E-4,1.4428546E-4,1.22613E-6,2.1270562E-4,-1.5444118E-4,-6.818499E-5,5.7054363E-4,1.1422956E-5,5.1767915E-5,2.6321068E-4,2.1772509E-4,-9.82755E-5,1.5430331E-4,-2.1743713E-6,-1.7780587E-5,1.2256736E-4,-5.3504824E-5,1.8792726E-4,8.063742E-4,3.1557577E-4,1.03331455E-4,6.149365E-4,3.9154647E-6,-8.173824E-4,-4.966859E-4,-1.4369815E-4,2.5386316E-5,-2.6007625E-4,-2.8744E-4,-9.61391E-4,-1.16814896E-4,1.845238E-4,7.7735167E-4,2.0412025E-4,-7.657834E-4,1.034885E-4,-1.1628976E-4,2.3912622E-4,9.957878E-5,-9.838979E-5,8.214897E-4,2.4191113E-4,-3.0221054E-4,1.4265846E-4,-2.1310544E-4,-6.991595E-4,-5.3000584E-4,2.0033767E-4,1.8948031E-4,-4.2822602E-4,5.5187213E-4,2.441549E-5,-6.065583E-5,1.6151927E-4,1.5860586E-4,5.28489E-4,8.612939E-5,-4.5397575E-4,4.330477E-4,2.2087432E-4,4.1689342E-4,-1.7856027E-3,1.3424526E-4,-5.0955167E-4,2.2620462E-4,-6.6546496E-4,8.702137E-4,1.7050044E-4,6.0317205E-4,-4.249975E-4,1.8314435E-4,1.0057782E-3,4.089738E-4,8.1918377E-4,3.3660792E-4,-4.680358E-4,4.0277373E-4,-1.2900555E-4,1.3480683E-4,-5.5437745E-4,9.573918E-5,-3.31437E-4,9.7139523E-4,-7.0324366E-4,1.8436258E-4,2.8713233E-5,1.3357885E-4,-2.808228E-4,2.9887867E-4,8.1395335E-4,1.2498964E-4,3.0645583E-4],"split_indices":[33,15,5,29,40,15,2,5,38,27,33,24,20,30,24,27,9,5,27,33,30,5,22,35,0,35,13,27,22,9,21,11,32,33,18,27,27,10,40,28,35,9,24,13,27,30,25,31,13,15,38,12,11,13,21,10,25,2,25,20,35,27,27,38,13,33,0,9,10,24,31,0,21,28,28,16,2,9,16,38,5,22,20,32,12,5,15,30,0,39,29,20,18,22,40,15,12,11,39,13,11,35,27,39,30,40,10,25,11,40,14,21,25,12,32,39,31,21,0,28,39,40,32,22,39,20,13,11,10,12,9,32,0,24,33,28,41,2,40,20,28,30,20,40,30,28,11,20,13,13,29,21,35,39,33,5,14,2,25,14,15,22,27,2,9,22,30,38,5,30,29,31,33,13,16,9,2,10,12,13,11,13,21,9,10,31,39,11,29,28,31,27,40,9,16,29,27,21,30,9,14,14,14,11,10,31,12,25,11,29,39,13,20,29,41,41,32,30,31,31,39,9,12,13,22,15,35,18,11,35,14,41,21,10,15,16,9,31,41,39,16,0,21,10,16,13,30,25,39,16,10,27,13,30,20,0,0,0,0,0,0,0,0,0,0,0,0,0,0,0,0,0,0,0,0,0,0,0,0,0,0,0,0,0,0,0,0,0,0,0,0,0,0,0,0,0,0,0,0,0,0,0,0,0,0,0,0,0,0,0,0,0,0,0,0,0,0,0,0,0,0,0,0,0,0,0,0,0,0,0,0,0,0,0,0,0,0,0,0,0,0,0,0,0,0,0,0,0,0,0,0,0,0,0,0,0,0,0,0,0,0,0,0,0,0,0,0,0,0,0,0,0,0,0,0,0,0,0,0,0,0,0,0,0,0,0,0,0,0,0,0,0,0,0,0,0,0,0,0,0,0,0,0,0,0,0,0,0,0,0,0,0,0,0,0,0,0,0,0,0,0,0,0,0,0,0,0,0,0,0,0,0,0,0,0,0,0,0,0,0,0,0,0,0,0,0,0,0,0,0,0,0,0,0,0,0,0,0,0,0,0,0,0,0,0,0,0,0,0,0,0,0,0,0,0,0,0,0,0,0,0,0,0,0,0,0,0,0,0,0,0,0,0,0,0,0,0,0,0,0,0,0,0,0,0,0,0,0,0,0,0],"split_type":[0,0,0,0,0,0,0,0,0,0,0,0,0,0,0,0,0,0,0,0,0,0,0,0,0,0,0,0,0,0,0,0,0,0,0,0,0,0,0,0,0,0,0,0,0,0,0,0,0,0,0,0,0,0,0,0,0,0,0,0,0,0,0,0,0,0,0,0,0,0,0,0,0,0,0,0,0,0,0,0,0,0,0,0,0,0,0,0,0,0,0,0,0,0,0,0,0,0,0,0,0,0,0,0,0,0,0,0,0,0,0,0,0,0,0,0,0,0,0,0,0,0,0,0,0,0,0,0,0,0,0,0,0,0,0,0,0,0,0,0,0,0,0,0,0,0,0,0,0,0,0,0,0,0,0,0,0,0,0,0,0,0,0,0,0,0,0,0,0,0,0,0,0,0,0,0,0,0,0,0,0,0,0,0,0,0,0,0,0,0,0,0,0,0,0,0,0,0,0,0,0,0,0,0,0,0,0,0,0,0,0,0,0,0,0,0,0,0,0,0,0,0,0,0,0,0,0,0,0,0,0,0,0,0,0,0,0,0,0,0,0,0,0,0,0,0,0,0,0,0,0,0,0,0,0,0,0,0,0,0,0,0,0,0,0,0,0,0,0,0,0,0,0,0,0,0,0,0,0,0,0,0,0,0,0,0,0,0,0,0,0,0,0,0,0,0,0,0,0,0,0,0,0,0,0,0,0,0,0,0,0,0,0,0,0,0,0,0,0,0,0,0,0,0,0,0,0,0,0,0,0,0,0,0,0,0,0,0,0,0,0,0,0,0,0,0,0,0,0,0,0,0,0,0,0,0,0,0,0,0,0,0,0,0,0,0,0,0,0,0,0,0,0,0,0,0,0,0,0,0,0,0,0,0,0,0,0,0,0,0,0,0,0,0,0,0,0,0,0,0,0,0,0,0,0,0,0,0,0,0,0,0,0,0,0,0,0,0,0,0,0,0,0,0,0,0,0,0,0,0,0,0,0,0,0,0,0,0,0,0,0,0,0,0,0,0,0,0,0,0,0,0,0,0,0,0,0,0,0,0,0,0,0,0,0,0,0,0,0,0,0,0,0,0,0,0,0,0,0,0,0,0,0,0,0,0,0,0,0,0,0,0,0,0,0,0,0,0,0,0,0,0,0,0,0,0,0,0,0,0,0],"sum_hessian":[1.922534E6,1.538421E6,3.84113E5,6.75433E5,8.62988E5,2.84064E5,1.00049E5,4.02163E5,2.7327E5,5.37061E5,3.25927E5,1.22583E5,1.61481E5,5.9686E4,4.0363E4,3.31864E5,7.0299E4,2.05503E5,6.7767E4,4.39809E5,9.7252E4,7.3843E4,2.52084E5,1.00324E5,2.2259E4,1.09571E5,5.191E4,3.5257E4,2.4429E4,6.614E3,3.3749E4,1.58967E5,1.72897E5,4.9167E4,2.1132E4,1.61834E5,4.3669E4,3.7888E4,2.9879E4,8.2415E4,3.57394E5,6.059E4,3.6662E4,6.121E4,1.2633E4,1.53232E5,9.8852E4,7.7442E4,2.2882E4,8.721E3,1.3538E4,5.4915E4,5.4656E4,4.6269E4,5.641E3,7.486E3,2.7771E4,4.585E3,1.9844E4,1.666E3,4.948E3,3.651E3,3.0098E4,9.5289E4,6.3678E4,1.31156E5,4.1741E4,1.3521E4,3.5646E4,1.7802E4,3.33E3,1.37501E5,2.4333E4,8.174E3,3.5495E4,7.895E3,2.9993E4,4.859E3,2.502E4,2.7592E4,5.4823E4,6.3321E4,2.94073E5,4.7832E4,1.2758E4,3.0305E4,6.357E3,1.6498E4,4.4712E4,9.652E3,2.981E3,8.4908E4,6.8324E4,4.5746E4,5.3106E4,1.4967E4,6.2475E4,5.756E3,1.7126E4,2.414E3,6.307E3,9.379E3,4.159E3,4.4135E4,1.078E4,4.2972E4,1.1684E4,3.6654E4,9.615E3,1.498E3,4.143E3,6.157E3,1.329E3,2.2165E4,5.606E3,2.387E3,2.198E3,1.1831E4,8.013E3,6.55E2,1.011E3,8.31E2,4.117E3,2.059E3,1.592E3,1.4578E4,1.552E4,5.5326E4,3.9963E4,1.8594E4,4.5084E4,9.5398E4,3.5758E4,3.661E4,5.131E3,8.755E3,4.766E3,2.8842E4,6.804E3,1.2756E4,5.046E3,2.226E3,1.104E3,7.2237E4,6.5264E4,1.7338E4,6.995E3,1.294E3,6.88E3,5.285E3,3.021E4,3.297E3,4.598E3,5.931E3,2.4062E4,4.021E3,8.38E2,1.9379E4,5.641E3,8.61E3,1.8982E4,3.2785E4,2.2038E4,3.8319E4,2.5002E4,2.45296E5,4.8777E4,3.4394E4,1.3438E4,1.0738E4,2.02E3,1.4402E4,1.5903E4,4.323E3,2.034E3,6.048E3,1.045E4,3.615E4,8.562E3,5.836E3,3.816E3,3.59E2,2.622E3,2.582E3,8.2326E4,5.5029E4,1.3295E4,2.278E4,2.2966E4,2.9391E4,2.3715E4,4.855E3,1.0112E4,5.0568E4,1.1907E4,2.043E3,3.713E3,6.869E3,1.0257E4,2.97E2,2.117E3,4.083E3,2.224E3,1.95E3,7.429E3,1.848E3,2.311E3,3.3868E4,1.0267E4,2.461E3,8.319E3,3.8317E4,4.655E3,7.481E3,4.203E3,1.7553E4,1.9101E4,7.869E3,1.746E3,8.02E2,6.96E2,1.825E3,2.318E3,8.84E2,5.273E3,9.92E2,3.37E2,7.961E3,1.4204E4,1.772E3,3.834E3,1.237E3,1.15E3,6.46E2,1.552E3,1.0491E4,1.34E3,1.709E3,6.304E3,6.5E1,5.9E2,3.17E2,6.94E2,4.74E2,3.57E2,3.66E3,4.57E2,1.228E3,8.31E2,1.467E3,1.25E2,1.2327E4,2.251E3,2.103E3,1.3417E4,1.8725E4,3.6601E4,3.1833E4,8.13E3,1.4647E4,3.947E3,2.1871E4,2.3213E4,1.7128E4,7.827E4,2.3654E4,1.2104E4,2.9871E4,6.739E3,9.11E2,4.22E3,5.031E3,3.724E3,1.088E3,3.678E3,8.803E3,2.0039E4,1.585E3,5.219E3,9.582E3,3.174E3,3.727E3,1.319E3,1.845E3,3.81E2,2.33E2,8.71E2,1.3296E4,5.8941E4,2.7939E4,3.7325E4,1.4159E4,3.179E3,5.609E3,1.386E3,9.17E2,3.77E2,8.92E2,5.988E3,2.065E3,3.22E3,1.6073E4,1.4137E4,8.94E2,2.403E3,1.408E3,3.19E3,2.926E3,3.005E3,2.2074E4,1.988E3,2.913E3,1.108E3,3.13E2,5.25E2,1.5716E4,3.663E3,4.108E3,1.533E3,5.21E3,3.4E3,8.747E3,1.0235E4,1.1738E4,2.1047E4,8.896E3,1.3142E4,3.2649E4,5.67E3,2.0515E4,4.487E3,4.7372E4,1.97924E5,1.715E4,3.1627E4,2.5511E4,8.883E3,1.1785E4,1.653E3,3.152E3,7.586E3,1.692E3,3.28E2,7.272E3,7.13E3,8.016E3,7.887E3,3.771E3,5.52E2,1.443E3,5.91E2,4.696E3,1.352E3,2.111E3,8.339E3,2.9545E4,6.605E3,4.874E3,3.688E3,7.49E2,5.087E3,3.064E3,7.52E2,3.2E1,3.27E2,2.004E3,6.18E2,1.868E3,7.14E2,2.9763E4,5.2563E4,1.6322E4,3.8707E4,2.64E3,1.0655E4,9.6E3,1.318E4,1.145E4,1.1516E4,1.1696E4,1.7695E4,1.6141E4,7.574E3,6.54E2,4.201E3,6.542E3,3.57E3,3.1136E4,1.9432E4,2.398E3,9.509E3,1.822E3,2.21E2,8.97E2,2.816E3,1.962E3,4.907E3,7.339E3,2.918E3,1.75E2,1.22E2,1.682E3,4.35E2,2.431E3,1.652E3,1.373E3,8.51E2,1.516E3,4.34E2,6.092E3,1.337E3,8.75E2,9.73E2,1.928E3,3.83E2,1.6874E4,1.6994E4,2.189E3,8.078E3,1.51E3,9.51E2,1.819E3,6.5E3,1.0273E4,2.8044E4,2.09E2,4.446E3,5.336E3,2.145E3,5.38E2,3.665E3,1.967E3,1.5586E4,4.933E3,1.4168E4,2.397E3,5.472E3,4.11E2,1.335E3,4.82E2,3.2E2,5.93E2,1.03E2,8.85E2,9.4E2,1.463E3,8.55E2,7.29E2,1.55E2,4.541E3,7.32E2,2.72E2,7.2E2,1.46E2,1.91E2,6.877E3,1.084E3,1.1573E4,2.631E3,4.43E2,1.329E3,7.77E2,3.057E3,9.66E2,2.71E2,1.69E2,9.81E2,3.14E2,3.32E2,5.87E2,9.65E2,4.489E3,6.002E3,6.09E2,7.31E2,1.379E3,3.3E2,2.566E3,3.738E3,1.7E1,4.8E1,3.5E2,2.4E2,1.75E2,1.42E2,1.11E2,5.83E2,8.6E1,3.88E2,2.71E2,8.6E1,2.887E3,7.73E2,2.44E2,2.13E2,8.59E2,3.69E2,5.34E2,2.97E2,3.85E2,1.082E3,9.4E1,3.1E1,7.24E3,5.087E3,1.004E3,1.247E3,1.614E3,4.89E2,9.534E3,3.883E3],"tree_param":{"num_deleted":"0","num_feature":"42","num_nodes":"511","size_leaf_vector":"0"}},{"base_weights":[-1.741537E-4,-1.409334E-3,4.769407E-3,1.2732982E-3,-3.5051731E-3,7.282613E-3,1.2724677E-3,4.3791058E-3,-2.3848782E-3,-4.603434E-3,1.6315738E-3,5.7873293E-3,1.2926385E-2,-1.9690404E-3,4.3492317E-3,7.3524956E-3,8.114101E-4,-7.7934633E-4,-9.224666E-3,-3.8090039E-3,-9.13386E-3,9.5317744E-5,1.2128447E-2,2.9490163E-4,7.3633012E-3,-2.2413682E-3,1.5571789E-2,-7.0681833E-3,1.0134549E-3,8.415813E-4,9.263822E-3,1.0890176E-2,4.0666666E-3,3.5094165E-3,-3.2554844E-3,-4.580858E-3,1.7294542E-4,-5.240214E-3,-1.9108796E-2,-7.9695685E-3,-2.7974385E-3,-1.2193669E-2,-3.753618E-3,4.7283866E-3,-2.409589E-3,4.6098223E-3,1.6363358E-2,-7.585519E-3,5.504093E-3,1.7048629E-3,9.061695E-3,-2.0320388E-2,8.641543E-3,6.977216E-3,1.958788E-2,-1.0796726E-2,4.984882E-3,-1.8098128E-3,6.979024E-3,-9.6096075E-4,9.212165E-3,-3.7079852E-3,1.2945792E-2,1.3587522E-2,6.6470043E-3,2.6154604E-3,8.653801E-3,4.845421E-3,-4.504135E-3,-6.3812234E-3,9.441315E-3,3.9103525E-3,-6.3831243E-3,-1.396972E-3,3.6894926E-3,2.9529193E-3,-6.711633E-3,1.4518291E-2,-2.1433294E-2,-9.592279E-3,-1.1859754E-3,-6.826701E-3,-1.8344043E-3,-1.4788874E-2,-5.3962083E-3,2.7351363E-5,-6.87884E-3,2.363958E-3,1.2945004E-2,1.4252592E-3,-4.90568E-3,-3.0127105E-3,1.6950835E-2,-2.3420139E-3,2.0693917E-2,8.23366E-3,-1.3835665E-2,8.775696E-3,-1.4404686E-2,-1.0370964E-2,5.9464383E-3,5.3595114E-3,1.2703138E-2,-1.0065734E-2,-5.32679E-2,-1.1039406E-2,1.796468E-2,1.1825935E-2,-1.0637096E-2,1.5748775E-2,2.789665E-2,-1.1522827E-3,-1.3831283E-2,-5.069051E-3,1.3987062E-2,-1.0498441E-2,6.4530433E-4,1.3818893E-4,1.9324692E-2,8.331733E-4,-9.915459E-3,1.3573477E-2,-2.9640286E-3,8.869672E-3,-1.3554738E-2,6.115912E-3,2.0030245E-2,1.7721146E-2,8.656908E-3,1.0686365E-2,2.2833915E-3,9.3891576E-4,8.948039E-3,1.1422192E-2,-2.7949193E-3,-4.5944354E-3,6.1731627E-3,3.5434516E-4,-1.6756145E-2,-1.0090506E-2,1.6072956E-4,1.5501484E-3,1.4768009E-2,1.8348947E-2,-3.7877255E-3,-1.1069033E-2,-2.3870266E-3,-2.7081575E-3,4.1552978E-3,1.8708284E-3,1.0897495E-2,-8.651192E-3,1.0169756E-2,-9.225706E-3,-1.8662506E-3,4.7281906E-2,-8.934991E-4,-1.731657E-2,-3.938471E-2,-6.4564226E-3,-1.18799675E-2,-5.05796E-3,8.541198E-3,-4.8880843E-3,-1.5420778E-2,-3.2010216E-3,2.279513E-4,-9.222515E-3,-2.1597093E-2,-1.2668127E-2,-6.17851E-4,-1.355298E-2,3.086198E-3,-3.0862836E-3,-1.2337532E-2,-1.421938E-3,7.4215354E-3,5.55315E-3,2.2769215E-2,1.2956382E-2,-8.9963083E-4,-1.2953182E-2,-2.7578007E-3,-1.9763397E-2,5.4862485E-3,1.3073203E-1,1.41074415E-2,-8.9265764E-2,-2.060173E-4,3.3037122E-2,1.5495234E-2,1.922694E-2,-9.20169E-3,-2.0056453E-2,-3.3414694E-3,-9.989004E-3,1.1867062E-2,1.5078522E-2,-1.8929353E-2,-1.4379335E-2,1.47337485E-2,-8.1827154E-4,1.109302E-2,-4.5374134E-3,7.4190972E-3,8.29441E-3,2.3012783E-2,-2.734364E-2,1.0713188E-2,4.825086E-3,-9.413776E-2,-1.9415125E-2,3.1285826E-2,8.8794634E-2,1.410632E-2,2.8705182E-3,1.8105866E-2,-3.4306046E-2,1.6168991E-2,1.292517E-2,3.152075E-2,3.4417886E-2,2.4836205E-3,-9.462684E-3,2.8653529E-2,-1.7159734E-2,-1.0167431E-3,-8.130667E-2,-3.1275502E-3,4.6644486E-3,2.8272767E-2,-3.2636676E-2,-5.1084715E-3,-3.6960524E-3,6.235519E-3,6.9270977E-3,-4.780552E-3,3.204935E-3,2.7102597E-2,-3.8905523E-3,4.5043924E-3,7.1867313E-3,-1.3725366E-2,-3.96052E-3,1.728557E-2,6.40816E-3,-3.4593955E-2,-8.163554E-3,2.5315164E-2,5.226002E-3,-2.2526458E-2,-3.954763E-3,1.1079348E-2,1.2333689E-2,3.324524E-2,6.408586E-3,1.9835794E-2,1.4408918E-2,5.341795E-3,-1.9036573E-3,1.2976347E-2,-5.1939074E-4,1.5364685E-2,-1.6786208E-3,4.9133874E-3,-9.199825E-3,1.3783509E-2,8.409956E-3,2.2842806E-2,1.5406352E-2,-1.1673137E-2,1.3225768E-2,-1.3155801E-2,4.5063775E-3,1.45872235E-2,-4.155706E-3,1.5647206E-2,-7.602061E-3,-4.9470294E-2,-2.258337E-2,-6.939195E-3,-1.3109606E-2,3.196972E-3,-5.9337453E-3,2.01993E-2,2.284525E-2,5.332214E-4,2.5306443E-2,-2.142226E-2,-9.644725E-3,5.889984E-3,-1.5859488E-2,-7.5382153E-3,-4.656213E-3,7.575002E-3,-6.43733E-3,-9.89144E-4,1.7217492E-3,1.6545402E-2,2.6688914E-4,7.3298286E-3,7.3487787E-3,2.4051359E-2,-1.2269006E-4,-2.6471626E-2,2.5990184E-2,2.2043553E-3,-1.1290628E-2,8.4576034E-4,-1.7216133E-2,8.273605E-4,4.721945E-3,8.39308E-2,-5.2758384E-2,1.9160014E-2,-2.7529309E-2,-9.482185E-3,-2.712225E-2,-6.0747497E-2,-3.0786204E-3,-1.0654521E-2,-1.3571788E-2,-5.759819E-4,1.229479E-3,-1.45583935E-2,2.3035234E-2,9.1648183E-4,-7.1266307E-3,1.3745839E-3,-1.2830176E-2,-3.0235922E-2,-1.8043941E-3,-6.6264016E-3,3.7587145E-3,-1.8371914E-3,-1.5565791E-4,-1.341903E-2,-1.3001806E-2,-3.239339E-2,-8.406335E-3,-2.498799E-2,-6.1937626E-3,6.096901E-3,-4.0209456E-3,-3.9238602E-2,-3.476496E-3,7.985049E-3,-7.485349E-3,4.8918915E-3,-1.5300495E-2,8.660214E-4,-1.21099455E-2,1.5125907E-3,1.6672805E-2,1.4038667E-3,-1.4593939E-2,9.337177E-3,1.6691184E-2,5.1418092E-2,9.615965E-4,3.4234535E-2,1.6547837E-3,-9.873608E-3,-9.394483E-3,-2.6161067E-2,-1.4542555E-3,-1.2078507E-2,2.6610197E-2,-2.9075345E-2,5.744524E-4,5.8823545E-2,2.2063264E-1,3.112726E-2,-2.91468E-2,2.0454323E-2,-5.997054E-2,-2.8576514E-1,5.5580225E-2,-5.508691E-3,2.4070729E-2,5.4069094E-2,2.1891545E-3,2.3740798E-2,2.7682863E-2,-9.274853E-3,3.0585723E-2,-1.6871154E-2,-2.5219223E-2,6.4246394E-3,-2.4922604E-2,1.100436E-2,-8.1008695E-2,-7.221394E-3,8.409789E-3,3.3487666E-2,9.981504E-2,-2.0459872E-3,-2.7108314E-2,4.2100456E-3,-1.0258929E-2,-3.6206927E-2,-1.889986E-2,5.357271E-2,-9.928694E-3,7.2390162E-3,6.906787E-3,2.0409517E-2,-4.984883E-4,-1.532137E-2,-2.8953883E-3,9.261519E-3,4.9305893E-3,1.5672041E-2,1.5519677E-2,2.977959E-2,1.3784412E-1,-3.1832896E-2,-5.1155165E-3,6.0390975E-2,-5.0612863E-2,3.1560503E-2,-1.8667236E-2,-1.19968355E-1,-9.106067E-3,-5.715109E-2,-6.134491E-2,5.8538023E-2,9.627167E-3,2.550114E-1,2.4997769E-2,-8.335489E-3,2.400927E-2,-5.1275496E-3,3.2696184E-2,1.3042426E-2,6.8428903E-3,-4.782836E-2,-2.5494413E-2,2.649844E-2,2.375294E-2,1.0009932E-2,2.0217752E-2,6.2648565E-2,2.3183344E-2,4.455381E-2,-5.4963768E-2,1.9771356E-2,-3.8399342E-2,-4.3569137E-3,1.9332232E-3,4.9612507E-2,5.4020586E-4,-2.0688608E-2,3.6076782E-3,-2.5376888E-2,-1.07198745E-1,9.085259E-2,-1.2676776E-2,8.385948E-3,-8.454488E-3,2.7787104E-2,-3.0176055E-3,4.153814E-2,-1.5177665E-2,-4.848426E-2,-9.406213E-4,-3.0188357E-2,-6.8456274E-3,8.173244E-3,3.2381665E-2,2.7385377E-3,-4.464136E-2,1.0294943E-2,-8.453251E-3,8.2568275E-3,-7.315618E-2,7.0799687E-3,3.817066E-2,1.4292367E-2,9.330921E-3,-6.255613E-3,1.4454762E-3,1.19163105E-2,-8.453954E-2,1.3181919E-2,-1.5160198E-3,-2.1417461E-2,3.6980975E-2,-1.358123E-2,7.2984276E-3,2.4162788E-2,-7.217769E-3,2.9108198E-2,-2.0756058E-2,-9.784218E-2,2.9854281E-4,-4.9205787E-2,1.8258944E-2,7.232723E-2,-5.2842703E-3,3.8588244E-2,-1.2535636E-2,-4.4574633E-2,1.0069629E-2,-1.4920348E-2,6.3456083E-3,2.7186085E-2,2.3630893E-2,7.165215E-3,2.0085316E-2,5.2170765E-2],"categories":[],"categories_nodes":[],"categories_segments":[],"categories_sizes":[],"default_left":[1,1,1,1,1,1,1,1,1,1,1,1,1,1,1,1,1,1,1,1,1,1,1,1,1,1,1,1,1,1,1,1,1,1,1,1,1,1,1,1,1,1,1,1,1,1,1,1,1,1,1,1,1,1,1,1,1,1,1,1,1,1,1,1,1,1,1,1,1,1,1,1,1,1,1,1,1,1,1,1,1,1,1,1,1,1,1,1,1,1,1,1,1,1,1,1,1,1,1,1,1,1,1,1,1,1,1,1,1,1,1,1,1,1,1,1,1,1,1,1,1,1,1,1,1,1,1,1,1,1,1,1,1,1,1,1,1,1,1,1,1,1,1,1,1,1,1,1,1,1,1,1,1,1,1,1,1,1,1,1,1,1,1,1,1,1,1,1,1,1,1,1,1,1,1,1,1,1,1,1,1,1,1,1,1,1,1,1,1,1,1,1,1,1,1,1,1,1,1,1,1,1,1,1,1,1,1,1,1,1,1,1,1,1,1,1,1,1,1,1,1,1,1,1,1,1,1,1,1,1,1,1,1,1,1,1,1,1,1,1,1,1,1,1,1,1,1,1,1,1,1,1,1,1,1,0,0,0,0,0,0,0,0,0,0,0,0,0,0,0,0,0,0,0,0,0,0,0,0,0,0,0,0,0,0,0,0,0,0,0,0,0,0,0,0,0,0,0,0,0,0,0,0,0,0,0,0,0,0,0,0,0,0,0,0,0,0,0,0,0,0,0,0,0,0,0,0,0,0,0,0,0,0,0,0,0,0,0,0,0,0,0,0,0,0,0,0,0,0,0,0,0,0,0,0,0,0,0,0,0,0,0,0,0,0,0,0,0,0,0,0,0,0,0,0,0,0,0,0,0,0,0,0,0,0,0,0,0,0,0,0,0,0,0,0,0,0,0,0,0,0,0,0,0,0,0,0,0,0,0,0,0,0,0,0,0,0,0,0,0,0,0,0,0,0,0,0,0,0,0,0,0,0,0,0,0,0,0,0,0,0,0,0,0,0,0,0,0,0,0,0,0,0,0,0,0,0,0,0,0,0,0,0,0,0,0,0,0,0,0,0,0,0,0,0,0,0,0,0,0,0,0,0,0,0,0,0,0,0,0,0,0,0,0,0,0,0,0,0,0,0,0,0,0,0,0,0,0,0,0,0],"id":2,"left_children":[1,3,5,7,9,11,13,15,17,19,21,23,25,27,29,31,33,35,37,39,41,43,45,47,49,51,53,55,57,59,61,63,65,67,69,71,73,75,77,79,81,83,85,87,89,91,93,95,97,99,101,103,105,107,109,111,113,115,117,119,121,123,125,127,129,131,133,135,137,139,141,143,145,147,149,151,153,155,157,159,161,163,165,167,169,171,173,175,177,179,181,183,185,187,189,191,193,195,197,199,201,203,205,207,209,211,213,215,217,219,221,223,225,227,229,231,233,235,237,239,241,243,245,247,249,251,253,255,257,259,261,263,265,267,269,271,273,275,277,279,281,283,285,287,289,291,293,295,297,299,301,303,305,307,309,311,313,315,317,319,321,323,325,327,329,331,333,335,337,339,341,343,345,347,349,351,353,355,357,359,361,363,365,367,369,371,373,375,377,379,381,383,385,387,389,391,393,395,397,399,401,403,405,407,409,411,413,415,417,419,421,423,425,427,429,431,433,435,437,439,441,443,445,447,449,451,453,455,457,459,461,463,465,467,469,471,473,475,477,479,481,483,485,487,489,491,493,495,497,499,501,503,505,507,509,-1,-1,-1,-1,-1,-1,-1,-1,-1,-1,-1,-1,-1,-1,-1,-1,-1,-1,-1,-1,-1,-1,-1,-1,-1,-1,-1,-1,-1,-1,-1,-1,-1,-1,-1,-1,-1,-1,-1,-1,-1,-1,-1,-1,-1,-1,-1,-1,-1,-1,-1,-1,-1,-1,-1,-1,-1,-1,-1,-1,-1,-1,-1,-1,-1,-1,-1,-1,-1,-1,-1,-1,-1,-1,-1,-1,-1,-1,-1,-1,-1,-1,-1,-1,-1,-1,-1,-1,-1,-1,-1,-1,-1,-1,-1,-1,-1,-1,-1,-1,-1,-1,-1,-1,-1,-1,-1,-1,-1,-1,-1,-1,-1,-1,-1,-1,-1,-1,-1,-1,-1,-1,-1,-1,-1,-1,-1,-1,-1,-1,-1,-1,-1,-1,-1,-1,-1,-1,-1,-1,-1,-1,-1,-1,-1,-1,-1,-1,-1,-1,-1,-1,-1,-1,-1,-1,-1,-1,-1,-1,-1,-1,-1,-1,-1,-1,-1,-1,-1,-1,-1,-1,-1,-1,-1,-1,-1,-1,-1,-1,-1,-1,-1,-1,-1,-1,-1,-1,-1,-1,-1,-1,-1,-1,-1,-1,-1,-1,-1,-1,-1,-1,-1,-1,-1,-1,-1,-1,-1,-1,-1,-1,-1,-1,-1,-1,-1,-1,-1,-1,-1,-1,-1,-1,-1,-1,-1,-1,-1,-1,-1,-1,-1,-1,-1,-1,-1,-1,-1,-1,-1,-1,-1,-1,-1,-1,-1,-1,-1,-1,-1,-1,-1,-1,-1,-1],"loss_changes":[1.1733519E1,8.644048E0,3.376007E0,7.6613827E0,4.869276E0,1.8861094E0,1.6020586E0,3.8687334E0,3.4001722E0,2.5592356E0,2.4516816E0,1.5294542E0,1.8783984E0,1.1896358E0,1.420648E0,2.3121862E0,1.8190447E0,9.07811E-1,2.3180919E0,2.5462227E0,1.7464294E0,1.5391783E0,6.179528E-1,1.617313E0,1.3194623E0,1.3681947E0,1.3757296E0,1.2973921E0,8.3128613E-1,7.256066E-1,1.6393287E0,1.0962095E0,6.8650115E-1,1.0670383E0,2.6240778E0,7.6877713E-1,1.1070853E0,5.057856E-1,1.3221788E0,1.3024883E0,1.8884373E0,1.192915E0,4.5448124E-1,9.0416896E-1,8.240143E-1,6.5806913E-1,1.0058026E0,1.5503309E0,1.5450308E0,1.6236501E0,1.423584E0,8.8230574E-1,7.967205E-1,1.0844512E0,8.6610794E-1,6.452546E-1,6.174212E-1,7.1465796E-1,1.3390263E0,6.357228E-1,4.52541E-1,9.400109E-1,1.2934275E0,1.1933546E0,6.5616417E-1,8.317795E-1,7.8558075E-1,1.070694E0,8.4777725E-1,1.2874799E0,5.490229E-1,9.777398E-1,7.75933E-1,1.0093181E0,8.1134415E-1,5.3505087E-1,4.332353E-1,5.5245316E-1,1.1682839E0,6.849117E-1,8.6035204E-1,1.5640407E0,1.1070713E0,1.8545179E0,6.493248E-1,7.230897E-1,4.3589228E-1,6.9205725E-1,7.5511265E-1,9.0992206E-1,9.0127647E-1,6.1583006E-1,8.622904E-1,4.3351835E-1,6.4643383E-1,8.5139096E-1,7.33639E-1,1.1818688E0,4.469142E-1,8.2939476E-1,8.1673723E-1,1.0674394E0,2.4195604E0,7.161714E-1,1.4724904E0,4.9549538E-1,8.038523E-1,5.598676E-1,1.7396423E0,8.2716465E-1,1.4224925E0,1.3076227E0,7.1530867E-1,4.7679937E-1,4.7918344E-1,8.805667E-1,6.3398093E-1,3.4074068E-1,7.0867443E-1,5.717083E-1,4.3046564E-1,4.0842962E-1,6.666225E-1,9.338459E-1,7.1740323E-1,6.804916E-1,1.3342285E0,7.618637E-1,5.091872E-1,5.57384E-1,6.561839E-1,6.44463E-1,1.4392834E0,6.8642926E-1,7.801981E-1,1.6072966E0,1.0502241E0,7.035063E-1,1.2106731E0,1.332835E0,7.736072E-1,7.3494685E-1,8.9658475E-1,8.469919E-1,3.253001E-1,3.2248545E-1,5.0565684E-1,7.189631E-1,7.9857516E-1,4.327587E-1,5.819144E-1,3.723517E-1,4.9631995E-1,4.869871E-1,5.0241697E-1,5.4552495E-1,7.758654E-1,1.0293939E0,7.7113533E-1,5.711231E-1,1.0557876E0,9.760019E-1,7.187549E-1,1.0739281E0,6.627822E-1,1.1301842E0,1.1414886E0,1.0245872E0,2.0424175E0,3.8884974E-1,4.2229578E-1,7.8331816E-1,4.5677793E-1,4.3614587E-1,3.3771122E-1,6.4834905E-1,8.6137503E-1,4.5267987E-1,7.766266E-1,1.453484E0,6.475296E-1,5.1608086E-1,5.0007486E-1,6.29516E-1,7.518543E-1,5.7517684E-1,7.1629477E-1,3.0522618E-1,6.7476726E-1,5.619898E-1,7.78494E-1,6.56765E-1,5.2476054E-1,9.648287E-1,1.2956375E0,5.658858E-1,1.3071415E0,6.47382E-1,5.4952514E-1,6.387317E-1,1.4836568E0,7.441814E-1,5.1946986E-1,3.929074E-1,8.237581E-1,9.253993E-1,8.080702E-1,8.1195784E-1,7.127285E-1,3.8251165E-1,7.0736E-1,4.530795E-1,5.867253E-1,1.9977069E0,6.833729E-1,6.941521E-1,4.31903E-1,8.10488E-1,5.541185E-1,4.973297E-1,9.912677E-1,7.768297E-1,1.7430462E0,6.097197E-1,6.44499E-1,8.3155274E-1,3.8975334E-1,3.663441E-1,3.4577337E-1,6.612229E-1,5.899519E-1,3.9907122E-1,6.205615E-1,5.497392E-1,1.04398E0,7.4500245E-1,2.8338978E-1,5.452733E-1,5.4007864E-1,4.5087206E-1,4.2055652E-1,6.6321355E-1,5.072987E-1,4.3259546E-1,3.5546815E-1,5.3686136E-1,4.4783342E-1,5.688976E-1,5.612891E-1,4.830438E-1,6.340662E-1,6.9141674E-1,6.951066E-1,4.8411167E-1,1.2016554E0,0E0,0E0,0E0,0E0,0E0,0E0,0E0,0E0,0E0,0E0,0E0,0E0,0E0,0E0,0E0,0E0,0E0,0E0,0E0,0E0,0E0,0E0,0E0,0E0,0E0,0E0,0E0,0E0,0E0,0E0,0E0,0E0,0E0,0E0,0E0,0E0,0E0,0E0,0E0,0E0,0E0,0E0,0E0,0E0,0E0,0E0,0E0,0E0,0E0,0E0,0E0,0E0,0E0,0E0,0E0,0E0,0E0,0E0,0E0,0E0,0E0,0E0,0E0,0E0,0E0,0E0,0E0,0E0,0E0,0E0,0E0,0E0,0E0,0E0,0E0,0E0,0E0,0E0,0E0,0E0,0E0,0E0,0E0,0E0,0E0,0E0,0E0,0E0,0E0,0E0,0E0,0E0,0E0,0E0,0E0,0E0,0E0,0E0,0E0,0E0,0E0,0E0,0E0,0E0,0E0,0E0,0E0,0E0,0E0,0E0,0E0,0E0,0E0,0E0,0E0,0E0,0E0,0E0,0E0,0E0,0E0,0E0,0E0,0E0,0E0,0E0,0E0,0E0,0E0,0E0,0E0,0E0,0E0,0E0,0E0,0E0,0E0,0E0,0E0,0E0,0E0,0E0,0E0,0E0,0E0,0E0,0E0,0E0,0E0,0E0,0E0,0E0,0E0,0E0,0E0,0E0,0E0,0E0,0E0,0E0,0E0,0E0,0E0,0E0,0E0,0E0,0E0,0E0,0E0,0E0,0E0,0E0,0E0,0E0,0E0,0E0,0E0,0E0,0E0,0E0,0E0,0E0,0E0,0E0,0E0,0E0,0E0,0E0,0E0,0E0,0E0,0E0,0E0,0E0,0E0,0E0,0E0,0E0,0E0,0E0,0E0,0E0,0E0,0E0,0E0,0E0,0E0,0E0,0E0,0E0,0E0,0E0,0E0,0E0,0E0,0E0,0E0,0E0,0E0,0E0,0E0,0E0,0E0,0E0,0E0,0E0,0E0,0E0,0E0,0E0,0E0,0E0,0E0,0E0,0E0,0E0,0E0,0E0,0E0,0E0,0E0,0E0,0E0,0E0,0E0,0E0,0E0,0E0,0E0,0E0,0E0,0E0,0E0,0E0,0E0,0E0],"parents":[2147483647,0,0,1,1,2,2,3,3,4,4,5,5,6,6,7,7,8,8,9,9,10,10,11,11,12,12,13,13,14,14,15,15,16,16,17,17,18,18,19,19,20,20,21,21,22,22,23,23,24,24,25,25,26,26,27,27,28,28,29,29,30,30,31,31,32,32,33,33,34,34,35,35,36,36,37,37,38,38,39,39,40,40,41,41,42,42,43,43,44,44,45,45,46,46,47,47,48,48,49,49,50,50,51,51,52,52,53,53,54,54,55,55,56,56,57,57,58,58,59,59,60,60,61,61,62,62,63,63,64,64,65,65,66,66,67,67,68,68,69,69,70,70,71,71,72,72,73,73,74,74,75,75,76,76,77,77,78,78,79,79,80,80,81,81,82,82,83,83,84,84,85,85,86,86,87,87,88,88,89,89,90,90,91,91,92,92,93,93,94,94,95,95,96,96,97,97,98,98,99,99,100,100,101,101,102,102,103,103,104,104,105,105,106,106,107,107,108,108,109,109,110,110,111,111,112,112,113,113,114,114,115,115,116,116,117,117,118,118,119,119,120,120,121,121,122,122,123,123,124,124,125,125,126,126,127,127,128,128,129,129,130,130,131,131,132,132,133,133,134,134,135,135,136,136,137,137,138,138,139,139,140,140,141,141,142,142,143,143,144,144,145,145,146,146,147,147,148,148,149,149,150,150,151,151,152,152,153,153,154,154,155,155,156,156,157,157,158,158,159,159,160,160,161,161,162,162,163,163,164,164,165,165,166,166,167,167,168,168,169,169,170,170,171,171,172,172,173,173,174,174,175,175,176,176,177,177,178,178,179,179,180,180,181,181,182,182,183,183,184,184,185,185,186,186,187,187,188,188,189,189,190,190,191,191,192,192,193,193,194,194,195,195,196,196,197,197,198,198,199,199,200,200,201,201,202,202,203,203,204,204,205,205,206,206,207,207,208,208,209,209,210,210,211,211,212,212,213,213,214,214,215,215,216,216,217,217,218,218,219,219,220,220,221,221,222,222,223,223,224,224,225,225,226,226,227,227,228,228,229,229,230,230,231,231,232,232,233,233,234,234,235,235,236,236,237,237,238,238,239,239,240,240,241,241,242,242,243,243,244,244,245,245,246,246,247,247,248,248,249,249,250,250,251,251,252,252,253,253,254,254],"right_children":[2,4,6,8,10,12,14,16,18,20,22,24,26,28,30,32,34,36,38,40,42,44,46,48,50,52,54,56,58,60,62,64,66,68,70,72,74,76,78,80,82,84,86,88,90,92,94,96,98,100,102,104,106,108,110,112,114,116,118,120,122,124,126,128,130,132,134,136,138,140,142,144,146,148,150,152,154,156,158,160,162,164,166,168,170,172,174,176,178,180,182,184,186,188,190,192,194,196,198,200,202,204,206,208,210,212,214,216,218,220,222,224,226,228,230,232,234,236,238,240,242,244,246,248,250,252,254,256,258,260,262,264,266,268,270,272,274,276,278,280,282,284,286,288,290,292,294,296,298,300,302,304,306,308,310,312,314,316,318,320,322,324,326,328,330,332,334,336,338,340,342,344,346,348,350,352,354,356,358,360,362,364,366,368,370,372,374,376,378,380,382,384,386,388,390,392,394,396,398,400,402,404,406,408,410,412,414,416,418,420,422,424,426,428,430,432,434,436,438,440,442,444,446,448,450,452,454,456,458,460,462,464,466,468,470,472,474,476,478,480,482,484,486,488,490,492,494,496,498,500,502,504,506,508,510,-1,-1,-1,-1,-1,-1,-1,-1,-1,-1,-1,-1,-1,-1,-1,-1,-1,-1,-1,-1,-1,-1,-1,-1,-1,-1,-1,-1,-1,-1,-1,-1,-1,-1,-1,-1,-1,-1,-1,-1,-1,-1,-1,-1,-1,-1,-1,-1,-1,-1,-1,-1,-1,-1,-1,-1,-1,-1,-1,-1,-1,-1,-1,-1,-1,-1,-1,-1,-1,-1,-1,-1,-1,-1,-1,-1,-1,-1,-1,-1,-1,-1,-1,-1,-1,-1,-1,-1,-1,-1,-1,-1,-1,-1,-1,-1,-1,-1,-1,-1,-1,-1,-1,-1,-1,-1,-1,-1,-1,-1,-1,-1,-1,-1,-1,-1,-1,-1,-1,-1,-1,-1,-1,-1,-1,-1,-1,-1,-1,-1,-1,-1,-1,-1,-1,-1,-1,-1,-1,-1,-1,-1,-1,-1,-1,-1,-1,-1,-1,-1,-1,-1,-1,-1,-1,-1,-1,-1,-1,-1,-1,-1,-1,-1,-1,-1,-1,-1,-1,-1,-1,-1,-1,-1,-1,-1,-1,-1,-1,-1,-1,-1,-1,-1,-1,-1,-1,-1,-1,-1,-1,-1,-1,-1,-1,-1,-1,-1,-1,-1,-1,-1,-1,-1,-1,-1,-1,-1,-1,-1,-1,-1,-1,-1,-1,-1,-1,-1,-1,-1,-1,-1,-1,-1,-1,-1,-1,-1,-1,-1,-1,-1,-1,-1,-1,-1,-1,-1,-1,-1,-1,-1,-1,-1,-1,-1,-1,-1,-1,-1,-1,-1,-1,-1,-1,-1],"split_conditions":[3.5E0,1.5E0,2.5E0,1.5E0,3.5E0,3.5E0,1.5E0,2.5E0,3.5E0,3.5E0,3.5E0,5E-1,5E-1,1.5E0,3.5E0,5E-1,2.5E0,5E-1,3.5E0,5E-1,2.5E0,1.5E0,1.5E0,1.5E0,5E-1,2.5E0,1.5E0,2.5E0,1.5E0,3.5E0,1.5E0,2.5E0,3.5E0,3.5E0,3.5E0,5E-1,2.5E0,5E-1,5E-1,3.5E0,5E-1,2.5E0,1.5E0,2.5E0,1.5E0,2.5E0,5E-1,1.5E0,3.5E0,5E-1,3.5E0,3.5E0,5E-1,3.5E0,3.5E0,5E-1,5E-1,5E-1,2.5E0,3.5E0,3.5E0,1.5E0,2.5E0,5E-1,5E-1,3.5E0,3.5E0,5E-1,3.5E0,2.5E0,1.5E0,1.5E0,1.5E0,3.5E0,3.5E0,1.5E0,2.5E0,1.5E0,3.5E0,2.5E0,2.5E0,3.5E0,2.5E0,1.5E0,1.5E0,5E-1,3.5E0,2.5E0,2.5E0,1.5E0,5E-1,1.5E0,5E-1,5E-1,1.5E0,2.5E0,2.5E0,5E-1,5E-1,3.5E0,1.5E0,5E-1,3.5E0,2.5E0,2.5E0,1.5E0,5E-1,1.5E0,2.5E0,3.5E0,3.5E0,3.5E0,3.5E0,5E-1,2.5E0,5E-1,2.5E0,2.5E0,1.5E0,1.5E0,5E-1,1.5E0,3.5E0,2.5E0,3.5E0,1.5E0,3.5E0,5E-1,1.5E0,1.5E0,3.5E0,2.5E0,5E-1,3.5E0,1.5E0,5E-1,3.5E0,3.5E0,2.5E0,5E-1,5E-1,2.5E0,5E-1,3.5E0,2.5E0,1.5E0,3.5E0,1.5E0,3.5E0,3.5E0,3.5E0,2.5E0,5E-1,3.5E0,5E-1,1.5E0,5E-1,1.5E0,2.5E0,2.5E0,3.5E0,2.5E0,5E-1,2.5E0,3.5E0,2.5E0,1.5E0,2.5E0,2.5E0,2.5E0,3.5E0,3.5E0,2.5E0,3.5E0,3.5E0,5E-1,5E-1,5E-1,3.5E0,3.5E0,2.5E0,3.5E0,3.5E0,5E-1,3.5E0,5E-1,5E-1,3.5E0,1.5E0,2.5E0,1.5E0,2.5E0,5E-1,3.5E0,1.5E0,5E-1,3.5E0,1.5E0,3.5E0,3.5E0,2.5E0,2.5E0,3.5E0,2.5E0,5E-1,2.5E0,2.5E0,5E-1,3.5E0,1.5E0,2.5E0,3.5E0,1.5E0,3.5E0,3.5E0,5E-1,1.5E0,1.5E0,5E-1,5E-1,3.5E0,3.5E0,5E-1,5E-1,3.5E0,1.5E0,3.5E0,3.5E0,2.5E0,2.5E0,1.5E0,3.5E0,3.5E0,3.5E0,5E-1,5E-1,3.5E0,5E-1,2.5E0,5E-1,2.5E0,5E-1,2.5E0,5E-1,1.5E0,2.5E0,3.5E0,3.5E0,3.5E0,2.5E0,3.5E0,1.5E0,3.5E0,1.5E0,2.5E0,6.408586E-5,1.9835794E-4,1.4408918E-4,5.3417945E-5,-1.9036574E-5,1.2976346E-4,-5.1939073E-6,1.5364685E-4,-1.6786207E-5,4.9133872E-5,-9.199825E-5,1.3783509E-4,8.4099556E-5,2.2842805E-4,1.5406351E-4,-1.1673136E-4,1.3225767E-4,-1.3155802E-4,4.5063774E-5,1.4587223E-4,-4.155706E-5,1.5647206E-4,-7.602061E-5,-4.9470295E-4,-2.2583369E-4,-6.939195E-5,-1.3109605E-4,3.1969717E-5,-5.9337453E-5,2.01993E-4,2.284525E-4,5.3322137E-6,2.530644E-4,-2.1422259E-4,-9.644725E-5,5.8899837E-5,-1.5859488E-4,-7.538215E-5,-4.6562127E-5,7.575002E-5,-6.43733E-5,-9.89144E-6,1.7217491E-5,1.6545401E-4,2.6688913E-6,7.329828E-5,7.348778E-5,2.4051359E-4,-1.2269006E-6,-2.6471625E-4,2.5990183E-4,2.2043552E-5,-1.1290628E-4,8.457603E-6,-1.7216132E-4,8.273605E-6,4.721945E-5,8.3930796E-4,-5.275838E-4,1.9160013E-4,-2.7529307E-4,-9.482185E-5,-2.712225E-4,-6.0747494E-4,-3.0786203E-5,-1.0654521E-4,-1.3571787E-4,-5.759819E-6,1.22947895E-5,-1.4558394E-4,2.3035234E-4,9.164818E-6,-7.126631E-5,1.3745839E-5,-1.2830176E-4,-3.023592E-4,-1.804394E-5,-6.6264016E-5,3.7587146E-5,-1.8371913E-5,-1.556579E-6,-1.341903E-4,-1.3001806E-4,-3.2393387E-4,-8.4063344E-5,-2.498799E-4,-6.193762E-5,6.0969007E-5,-4.0209456E-5,-3.9238602E-4,-3.476496E-5,7.9850484E-5,-7.485349E-5,4.8918915E-5,-1.5300495E-4,8.660214E-6,-1.2109945E-4,1.5125906E-5,1.6672804E-4,1.4038666E-5,-1.4593938E-4,9.337176E-5,1.6691184E-4,5.141809E-4,9.615965E-6,3.4234533E-4,1.6547838E-5,-9.8736076E-5,-9.394482E-5,-2.6161066E-4,-1.4542555E-5,-1.20785066E-4,2.6610197E-4,-2.9075344E-4,5.7445236E-6,5.8823545E-4,2.2063265E-3,3.112726E-4,-2.91468E-4,2.0454322E-4,-5.997054E-4,-2.8576513E-3,5.5580225E-4,-5.5086908E-5,2.4070728E-4,5.406909E-4,2.1891545E-5,2.3740798E-4,2.7682862E-4,-9.274853E-5,3.0585722E-4,-1.6871154E-4,-2.5219223E-4,6.424639E-5,-2.4922602E-4,1.100436E-4,-8.1008696E-4,-7.221394E-5,8.409789E-5,3.3487665E-4,9.981504E-4,-2.0459871E-5,-2.7108312E-4,4.2100455E-5,-1.02589285E-4,-3.6206926E-4,-1.889986E-4,5.357271E-4,-9.928694E-5,7.239016E-5,6.9067864E-5,2.0409517E-4,-4.984883E-6,-1.532137E-4,-2.8953882E-5,9.2615184E-5,4.930589E-5,1.567204E-4,1.5519676E-4,2.977959E-4,1.3784411E-3,-3.1832897E-4,-5.1155163E-5,6.039097E-4,-5.061286E-4,3.1560502E-4,-1.8667236E-4,-1.1996835E-3,-9.106067E-5,-5.715109E-4,-6.134491E-4,5.8538024E-4,9.6271666E-5,2.550114E-3,2.499777E-4,-8.3354884E-5,2.400927E-4,-5.1275496E-5,3.2696183E-4,1.3042426E-4,6.8428904E-5,-4.782836E-4,-2.5494414E-4,2.649844E-4,2.375294E-4,1.0009932E-4,2.0217751E-4,6.264856E-4,2.3183343E-4,4.4553808E-4,-5.4963765E-4,1.9771355E-4,-3.839934E-4,-4.3569136E-5,1.9332232E-5,4.961251E-4,5.4020584E-6,-2.0688608E-4,3.607678E-5,-2.5376887E-4,-1.0719874E-3,9.0852584E-4,-1.2676776E-4,8.385948E-5,-8.4544874E-5,2.7787103E-4,-3.0176054E-5,4.153814E-4,-1.5177665E-4,-4.8484257E-4,-9.4062125E-6,-3.0188356E-4,-6.845628E-5,8.173244E-5,3.2381664E-4,2.7385377E-5,-4.464136E-4,1.0294943E-4,-8.4532505E-5,8.256827E-5,-7.3156174E-4,7.079969E-5,3.817066E-4,1.4292366E-4,9.330921E-5,-6.255613E-5,1.4454762E-5,1.191631E-4,-8.453954E-4,1.318192E-4,-1.5160198E-5,-2.1417461E-4,3.6980974E-4,-1.358123E-4,7.298427E-5,2.4162787E-4,-7.217769E-5,2.91082E-4,-2.0756057E-4,-9.784218E-4,2.9854282E-6,-4.920579E-4,1.8258944E-4,7.232723E-4,-5.28427E-5,3.8588245E-4,-1.2535635E-4,-4.4574632E-4,1.0069629E-4,-1.4920348E-4,6.345608E-5,2.7186083E-4,2.3630893E-4,7.1652146E-5,2.0085316E-4,5.2170764E-4],"split_indices":[33,15,31,34,40,2,40,39,5,34,23,11,21,7,36,34,11,12,9,33,30,31,12,12,2,5,18,21,25,18,1,11,40,30,7,16,21,39,39,22,22,32,32,17,2,32,11,9,24,40,23,11,32,16,39,24,40,22,9,11,40,24,9,15,17,21,11,1,16,18,37,36,5,25,11,22,33,10,22,15,18,16,30,30,37,12,27,10,22,32,17,2,36,34,7,39,30,39,39,1,10,5,11,25,9,31,17,7,25,8,11,16,19,23,11,8,30,7,5,19,24,32,39,16,34,2,30,7,24,21,7,19,18,22,9,11,2,37,27,7,8,1,34,18,8,37,22,32,8,40,9,37,31,22,17,22,17,22,37,39,17,16,23,21,27,34,24,27,9,9,32,9,33,36,22,12,31,39,9,39,5,5,25,21,21,25,30,2,36,21,5,1,37,18,37,36,37,17,39,10,18,25,39,21,7,40,30,36,9,30,34,12,9,23,15,37,1,9,37,31,9,5,30,32,34,15,37,11,22,5,32,36,9,19,32,18,22,36,16,7,2,34,32,27,12,10,11,11,32,39,16,10,40,32,5,0,0,0,0,0,0,0,0,0,0,0,0,0,0,0,0,0,0,0,0,0,0,0,0,0,0,0,0,0,0,0,0,0,0,0,0,0,0,0,0,0,0,0,0,0,0,0,0,0,0,0,0,0,0,0,0,0,0,0,0,0,0,0,0,0,0,0,0,0,0,0,0,0,0,0,0,0,0,0,0,0,0,0,0,0,0,0,0,0,0,0,0,0,0,0,0,0,0,0,0,0,0,0,0,0,0,0,0,0,0,0,0,0,0,0,0,0,0,0,0,0,0,0,0,0,0,0,0,0,0,0,0,0,0,0,0,0,0,0,0,0,0,0,0,0,0,0,0,0,0,0,0,0,0,0,0,0,0,0,0,0,0,0,0,0,0,0,0,0,0,0,0,0,0,0,0,0,0,0,0,0,0,0,0,0,0,0,0,0,0,0,0,0,0,0,0,0,0,0,0,0,0,0,0,0,0,0,0,0,0,0,0,0,0,0,0,0,0,0,0,0,0,0,0,0,0,0,0,0,0,0,0,0,0,0,0,0,0,0,0,0,0,0,0,0,0,0,0,0,0,0,0,0,0,0,0],"split_type":[0,0,0,0,0,0,0,0,0,0,0,0,0,0,0,0,0,0,0,0,0,0,0,0,0,0,0,0,0,0,0,0,0,0,0,0,0,0,0,0,0,0,0,0,0,0,0,0,0,0,0,0,0,0,0,0,0,0,0,0,0,0,0,0,0,0,0,0,0,0,0,0,0,0,0,0,0,0,0,0,0,0,0,0,0,0,0,0,0,0,0,0,0,0,0,0,0,0,0,0,0,0,0,0,0,0,0,0,0,0,0,0,0,0,0,0,0,0,0,0,0,0,0,0,0,0,0,0,0,0,0,0,0,0,0,0,0,0,0,0,0,0,0,0,0,0,0,0,0,0,0,0,0,0,0,0,0,0,0,0,0,0,0,0,0,0,0,0,0,0,0,0,0,0,0,0,0,0,0,0,0,0,0,0,0,0,0,0,0,0,0,0,0,0,0,0,0,0,0,0,0,0,0,0,0,0,0,0,0,0,0,0,0,0,0,0,0,0,0,0,0,0,0,0,0,0,0,0,0,0,0,0,0,0,0,0,0,0,0,0,0,0,0,0,0,0,0,0,0,0,0,0,0,0,0,0,0,0,0,0,0,0,0,0,0,0,0,0,0,0,0,0,0,0,0,0,0,0,0,0,0,0,0,0,0,0,0,0,0,0,0,0,0,0,0,0,0,0,0,0,0,0,0,0,0,0,0,0,0,0,0,0,0,0,0,0,0,0,0,0,0,0,0,0,0,0,0,0,0,0,0,0,0,0,0,0,0,0,0,0,0,0,0,0,0,0,0,0,0,0,0,0,0,0,0,0,0,0,0,0,0,0,0,0,0,0,0,0,0,0,0,0,0,0,0,0,0,0,0,0,0,0,0,0,0,0,0,0,0,0,0,0,0,0,0,0,0,0,0,0,0,0,0,0,0,0,0,0,0,0,0,0,0,0,0,0,0,0,0,0,0,0,0,0,0,0,0,0,0,0,0,0,0,0,0,0,0,0,0,0,0,0,0,0,0,0,0,0,0,0,0,0,0,0,0,0,0,0,0,0,0,0,0,0,0,0,0,0,0,0,0,0,0,0,0,0,0,0,0,0,0,0,0,0,0,0,0,0,0,0,0,0,0,0,0,0,0,0,0,0,0,0,0,0,0,0,0,0,0,0,0],"sum_hessian":[1.921576E6,1.537438E6,3.84138E5,6.74321E5,8.63117E5,2.23506E5,1.60632E5,3.64694E5,3.09627E5,7.11084E5,1.52033E5,1.76694E5,4.6812E4,7.8222E4,8.241E4,1.98914E5,1.6578E5,2.50765E5,5.8862E4,6.04997E5,1.06087E5,1.32624E5,1.9409E4,3.9396E4,1.37298E5,6.952E3,3.986E4,2.8867E4,4.9355E4,4.8089E4,3.4321E4,9.5785E4,1.03129E5,9.9663E4,6.6117E4,5.0233E4,2.00532E5,4.1952E4,1.691E4,1.18324E5,4.86673E5,6.7626E4,3.8461E4,4.6541E4,8.6083E4,6.994E3,1.2415E4,1.5678E4,2.3718E4,3.1697E4,1.05601E5,2.612E3,4.34E3,1.2695E4,2.7165E4,2.2047E4,6.82E3,3.3501E4,1.5854E4,3.9569E4,8.52E3,7.588E3,2.6733E4,5.8558E4,3.7227E4,7.8345E4,2.4784E4,8.5422E4,1.4241E4,5.3056E4,1.3061E4,8.795E3,4.1438E4,1.38639E5,6.1893E4,6.387E3,3.5565E4,1.093E3,1.5817E4,9.5483E4,2.2841E4,9.388E4,3.92793E5,4.894E4,1.8686E4,1.7405E4,2.1056E4,3.6142E4,1.0399E4,3.394E4,5.2143E4,4.324E3,2.67E3,2.334E3,1.0081E4,4.44E3,1.1238E4,2.0371E4,3.347E3,8.239E3,2.3458E4,5.2365E4,5.3236E4,1.993E3,6.19E2,1.395E3,2.945E3,9.955E3,2.74E3,1.8582E4,8.583E3,5.277E3,1.677E4,3.222E3,3.598E3,7.38E3,2.6121E4,1.0202E4,5.652E3,3.2965E4,6.604E3,6.273E3,2.247E3,3.332E3,4.256E3,1.3612E4,1.3121E4,3.1852E4,2.6706E4,1.9331E4,1.7896E4,6.1946E4,1.6399E4,1.9958E4,4.826E3,1.0533E4,7.4889E4,1.0198E4,4.043E3,3.3858E4,1.9198E4,5.264E3,7.797E3,3.058E3,5.737E3,1.9072E4,2.2366E4,1.12154E5,2.6485E4,4.9424E4,1.2469E4,2.449E3,3.938E3,2.3415E4,1.215E4,3.49E2,7.44E2,1.2868E4,2.949E3,4.0277E4,5.5206E4,1.6338E4,6.503E3,7.6602E4,1.7278E4,2.36245E5,1.56548E5,2.6927E4,2.2013E4,7.409E3,1.1277E4,3.199E3,1.4206E4,1.2425E4,8.631E3,2.067E4,1.5472E4,5.935E3,4.464E3,5.694E3,2.8246E4,1.0984E4,4.1159E4,1.455E3,2.869E3,6.4E1,2.606E3,5.5E1,2.279E3,2.986E3,7.095E3,2.723E3,1.717E3,7.055E3,4.183E3,2.881E3,1.749E4,4.45E2,2.902E3,7.105E3,1.134E3,1.0136E4,1.3322E4,9.02E3,4.3345E4,3.7291E4,1.5945E4,1.088E3,9.05E2,2.56E2,3.63E2,1.165E3,2.3E2,1.51E2,2.794E3,4.104E3,5.851E3,1.455E3,1.285E3,1.5762E4,2.82E3,6.83E3,1.753E3,4.127E3,1.15E3,1.3312E4,3.458E3,7.9E1,3.143E3,2.178E3,1.42E3,1.444E3,5.936E3,1.4703E4,1.1418E4,4.286E3,5.916E3,1.84E3,3.812E3,1.4416E4,1.8549E4,1.203E3,5.401E3,1.096E3,5.177E3,1.734E3,5.13E2,1.637E3,1.695E3,1.376E3,2.88E3,4.494E3,9.118E3,8.293E3,4.828E3,5.017E3,2.6835E4,9.763E3,1.6943E4,2.975E3,1.6356E4,1.4739E4,3.157E3,3.7349E4,2.4597E4,3.45E3,1.2949E4,1.5794E4,4.164E3,1.582E3,3.244E3,3.418E3,7.115E3,6.2508E4,1.2381E4,7.876E3,2.322E3,3.16E3,8.83E2,6.819E3,2.7039E4,3.574E3,1.5624E4,3.757E3,1.507E3,4.974E3,2.823E3,2.603E3,4.55E2,3.574E3,2.163E3,8.091E3,1.0981E4,1.8217E4,4.149E3,3.5386E4,7.6768E4,2.2138E4,4.347E3,3.8201E4,1.1223E4,9.821E3,2.648E3,1.657E3,7.92E2,1.318E3,2.62E3,1.9431E4,3.984E3,1.813E3,1.0337E4,1.62E2,1.87E2,2.07E2,5.37E2,5.585E3,7.283E3,1.875E3,1.074E3,2.232E4,1.7957E4,4.8019E4,7.187E3,9.832E3,6.506E3,2.241E3,4.262E3,5.6431E4,2.0171E4,1.4708E4,2.57E3,1.67821E5,6.8424E4,5.7773E4,9.8775E4,8.52E3,1.8407E4,1.2257E4,9.756E3,5.506E3,1.903E3,6.161E3,5.116E3,2.334E3,8.65E2,6.072E3,8.134E3,8.009E3,4.416E3,7.049E3,1.582E3,4.452E3,1.6218E4,6.097E3,9.375E3,9.38E2,4.997E3,3.684E3,7.8E2,3.642E3,2.052E3,2.1988E4,6.258E3,8.654E3,2.33E3,3.611E4,5.049E3,2.43E2,1.212E3,2.628E3,2.41E2,3.3E1,3.1E1,3.33E2,2.273E3,4.9E1,6E0,1.97E2,2.082E3,2.095E3,8.91E2,2.715E3,4.38E3,2.1E3,6.23E2,2.77E2,1.44E3,5.904E3,1.151E3,1.67E3,2.513E3,1.07E2,2.774E3,1.508E4,2.41E3,7.4E1,3.71E2,2.144E3,7.58E2,5.978E3,1.127E3,6.08E2,5.26E2,4.757E3,5.379E3,9.193E3,4.129E3,6.563E3,2.457E3,6.569E3,3.6776E4,2.5614E4,1.1677E4,7.568E3,8.377E3,2.8E1,1.06E3,6.87E2,2.18E2,8.3E1,1.73E2,9.3E1,2.7E2,9.16E2,2.49E2,5.2E1,1.78E2,1.03E2,4.8E1,1.881E3,9.13E2,1.126E3,2.978E3,1.506E3,4.345E3,3.6E2,1.095E3,2.55E2,1.03E3,3.342E3,1.242E4,2.07E3,7.5E2,3.241E3,3.589E3,4.05E2,1.348E3,6.18E2,3.509E3,5.06E2,6.44E2,2.213E3,1.1099E4,2.907E3,5.51E2,6.9E1,1E1,1.718E3,1.425E3,1.39E3,7.88E2,4.23E2,9.97E2,6.88E2,7.56E2,5.091E3,8.45E2,1.162E4,3.083E3,1.346E3,1.0072E4,2.62E2,4.024E3,4.616E3,1.3E3,8.8E1,1.752E3,2.044E3,1.768E3,2.187E3,1.2229E4,1.3131E4,5.418E3,7.3E1,1.13E3,2.088E3,3.313E3,2.08E2,8.88E2,2.112E3,3.065E3,1.084E3,6.5E2,4.22E2,9.1E1,1.358E3,2.79E2,1.475E3,2.2E2,1.047E3,3.29E2,1.983E3,8.97E2,1.972E3,2.522E3,7.048E3,2.07E3,2.602E3,5.691E3,2.849E3,1.979E3],"tree_param":{"num_deleted":"0","num_feature":"42","num_nodes":"511","size_leaf_vector":"0"}},{"base_weights":[-5.0695176E-5,4.329332E-3,-1.1470641E-3,9.644111E-4,6.1451956E-3,1.2856661E-3,-2.881263E-3,-1.0978413E-3,9.840478E-3,7.0424597E-3,-3.4312543E-4,-9.548381E-4,4.8979716E-3,-3.7648885E-3,1.6568037E-3,1.3414632E-3,-4.2925254E-3,4.8561415E-4,1.4680635E-2,8.178497E-3,2.870918E-3,7.971592E-3,-6.179909E-3,-3.977353E-3,8.3735527E-4,8.535265E-3,2.8653976E-3,-4.7742855E-3,-1.0046919E-3,-1.9575993E-3,7.946003E-3,-4.319491E-3,4.759509E-3,-7.379958E-3,4.699626E-3,5.03326E-3,-1.9489827E-2,6.1961077E-3,2.101133E-2,7.1559623E-3,1.1922366E-2,1.2378489E-3,1.0784385E-2,1.4465983E-2,-1.1367843E-3,-3.6378533E-3,-1.8009186E-2,-1.041541E-2,-2.6242784E-3,3.319144E-3,-6.252162E-4,1.2625499E-2,3.9855014E-3,6.5962224E-5,4.9665486E-3,-7.7579343E-3,-4.0731365E-3,-5.449566E-3,3.4544033E-3,-5.219307E-3,2.6809755E-3,2.2715662E-2,5.842385E-3,-1.5226111E-2,1.15864395E-5,-1.521369E-4,8.795586E-3,-1.2490709E-2,-3.9136726E-3,-1.7860565E-2,7.7868374E-3,-1.657432E-3,1.2711074E-2,-5.8150582E-2,-1.0100664E-2,1.4872306E-2,-4.196467E-3,2.6548125E-2,9.512196E-3,5.9583858E-3,1.3181206E-2,8.559506E-3,1.9780293E-2,-4.9276813E-3,3.2281464E-3,-2.6338187E-3,1.4651142E-2,5.455001E-3,2.9353702E-2,-2.613284E-2,3.9457595E-3,-1.950426E-2,6.750132E-5,-5.6071173E-2,-7.3321704E-3,1.958977E-3,-1.2547525E-2,-4.2137364E-3,3.3824383E-3,6.6218544E-3,1.3194242E-3,-4.2453613E-3,1.3391695E-3,1.903347E-3,1.439019E-2,-3.262044E-3,9.230863E-3,-2.3731051E-3,3.8906494E-3,6.592945E-3,-3.13552E-3,-4.370892E-3,-1.0031653E-2,-3.3766383E-3,-6.5772664E-3,-6.738737E-3,8.410109E-3,-5.4705807E-4,9.5898295E-3,-3.3139964E-3,-1.5032379E-2,3.76724E-2,2.0027866E-3,3.890848E-2,1.4768295E-2,1.8916309E-2,3.5827379E-3,-3.578779E-2,-1.1038726E-2,-1.13839805E-2,3.5648784E-3,1.6219163E-3,-1.626611E-2,1.8123936E-2,5.5703265E-3,-6.378503E-3,-1.8536339E-2,-9.965035E-3,1.6178306E-3,-3.2160908E-2,5.3293244E-3,2.5277706E-3,1.521111E-2,1.884918E-2,-7.345444E-3,3.7207898E-2,6.9726165E-3,-2.2186078E-2,-1.488228E-1,1.1722076E-2,-3.259167E-2,2.3653263E-2,-8.823753E-3,1.8502152E-2,-1.1202103E-2,2.1448381E-2,4.5330074E-2,2.6525643E-2,1.2117823E-3,7.986805E-3,3.3938591E-3,2.0685226E-3,1.5641384E-2,1.3449644E-2,1.6532735E-3,2.650917E-2,1.0912093E-2,-8.878403E-3,1.27476435E-2,-3.8024485E-3,6.0100416E-3,3.200002E-2,-8.218222E-3,1.1106292E-2,3.176868E-2,-9.428168E-3,1.816738E-2,4.1406237E-2,2.3249302E-3,-5.8586914E-2,6.825472E-3,1.8651724E-2,-8.739593E-3,-2.6196362E-2,7.1314387E-3,-9.082977E-3,5.645362E-3,1.7980852E-3,-7.051558E-2,1.5167812E-2,-2.186665E-2,-1.6189428E-2,2.1419078E-2,-1.6634729E-2,-5.861318E-3,-2.489231E-3,-1.1400603E-2,1.0510508E-2,-3.5098812E-5,1.0639117E-2,2.0870375E-3,-2.9019304E-4,1.03533575E-2,1.0650973E-3,-9.797649E-3,3.1698786E-3,-3.7091435E-3,9.233006E-3,-5.4201684E-3,1.8535843E-2,8.686544E-3,-1.3276079E-4,-1.5343306E-2,-4.1317455E-3,1.286966E-2,1.5249862E-3,-6.1166836E-3,-6.041084E-4,1.1896063E-2,3.0986327E-3,9.342902E-3,-1.1034604E-2,2.319874E-3,-1.9302145E-3,-1.0167885E-2,-1.3716122E-2,-8.28694E-3,-4.195541E-3,-8.2228036E-4,-5.78258E-4,-8.612328E-3,-2.3408716E-3,-9.68764E-3,1.4341326E-2,-6.091273E-3,1.931157E-3,-1.2199361E-2,3.1699282E-3,1.4956502E-2,8.6636385E-3,-5.2540563E-3,-2.2150444E-2,4.330641E-3,5.115544E-2,-3.4760144E-2,-1.1908547E-3,9.436922E-3,1.643266E-2,5.624303E-2,-1.2804982E-2,2.0993395E-2,1.27507495E-2,3.716797E-2,-3.918186E-3,5.6152553E-3,-5.5495773E-2,-9.748224E-3,-4.898894E-3,-3.2129355E-2,-1.641557E-2,2.8566426E-2,1.3621683E-2,8.6242665E-4,5.6313025E-3,-4.7039776E-3,1.4825757E-2,-2.8978024E-2,3.479217E-2,9.400968E-3,3.4976178E-3,1.6581643E-2,-1.6409935E-3,-2.5207704E-2,-1.3766261E-2,-4.2596508E-2,-1.298242E-2,9.988369E-3,1.9273216E-2,-2.537027E-3,-9.5762566E-2,-1.9040992E-2,-1.0077894E-2,6.874686E-2,-5.4359124E-3,1.06401155E-2,3.5523837E-3,2.4257265E-2,6.4035945E-2,8.220631E-3,-1.524823E-2,1.4008195E-2,7.713968E-2,1.386228E-2,1.0698136E-2,-3.7568532E-2,-5.4604366E-2,6.444623E-2,-2.0990118E-1,-6.8754256E-2,2.4031091E-2,-3.3992935E-2,3.0200245E-2,-4.7647215E-2,1.2318533E-2,4.13897E-2,-3.8426153E-3,-8.597135E-2,6.178907E-2,5.072355E-3,2.621421E-3,-2.619617E-2,3.482394E-2,1.2164155E-2,2.0143397E-2,6.1656334E-2,-2.8192539E-2,3.80071E-2,7.6536285E-3,-2.0113613E-2,4.990351E-5,9.354676E-3,6.085228E-4,1.0204659E-2,-1.889412E-2,7.609355E-3,1.30771715E-2,2.6691703E-2,5.704658E-3,1.6514204E-2,-3.3244388E-3,1.4256501E-2,4.2512E-2,2.0875404E-2,-1.2914197E-2,1.9002246E-2,-2.0742705E-2,-2.9181612E-3,-1.5979698E-2,2.24463E-2,8.380869E-3,-1.3957054E-2,1.4194286E-3,1.6006164E-2,1.5491456E-2,1.15775585E-1,-4.44582E-2,1.2090817E-3,1.8676769E-3,1.8351808E-2,2.1487474E-2,6.630136E-2,-2.5624687E-2,1.5316489E-2,-1.468402E-2,2.7188683E-2,9.924123E-2,3.2494266E-2,4.336182E-2,-1.1357672E-2,-1.2050907E-1,-3.75843E-2,8.325774E-2,-1.2084849E-2,3.8890808E-3,4.124688E-2,1.7583357E-2,-1.6935566E-2,-6.549431E-3,-3.8929943E-2,-1.4194756E-2,7.2925955E-2,-3.0563427E-2,-4.199913E-3,-4.273348E-2,7.846089E-3,6.0192958E-2,-7.385754E-2,-1.8942633E-1,-5.428889E-2,4.820236E-3,2.1339592E-1,1.921615E-2,-3.507067E-2,2.0400088E-3,-4.1240685E-2,6.809749E-3,6.145993E-2,-2.2613214E-2,2.5604595E-5,-1.0938326E-2,1.5413497E-2,-5.235502E-3,1.6834558E-3,-7.2938786E-3,-1.781186E-2,2.191664E-3,1.670819E-2,-1.0311504E-2,2.5888265E-3,-1.4180697E-3,1.3186056E-2,1.3167778E-4,1.6644664E-2,1.7438025E-3,-6.109783E-3,2.5395636E-2,2.347256E-3,-6.3722865E-3,3.716885E-3,-3.4448307E-3,-1.5329037E-2,1.7686426E-3,1.0846849E-2,-6.179851E-3,7.052253E-3,3.3796628E-3,3.550343E-2,-4.6070954E-3,-1.3095604E-1,2.3005256E-2,1.0497348E-2,1.2921365E-2,2.937934E-3,5.372036E-3,-9.9784685E-3,-2.8945563E-2,1.3990332E-2,-2.7853107E-2,2.7450435E-3,2.0949343E-2,7.495561E-3,-1.0525134E-3,1.6612483E-2,-1.0149318E-2,6.559771E-3,-3.9432985E-3,5.378014E-3,3.2104359E-3,1.7347636E-2,9.777294E-4,1.1883612E-2,1.2695891E-2,6.2053385E-3,-1.0857178E-3,-2.0057604E-2,6.8443865E-3,-1.9788167E-2,-6.004011E-3,3.898787E-3,-5.2341563E-3,-1.6963713E-2,-2.2617351E-2,-9.638919E-3,-3.993069E-3,-1.1218224E-2,-5.2892636E-3,-1.4369853E-3,-6.5831784E-3,7.8755233E-4,-4.5742355E-3,5.9264954E-3,-1.1823608E-2,-4.880467E-3,1.3863328E-3,-6.930152E-3,-1.1107767E-2,-1.521371E-3,-2.5287675E-4,2.3551784E-2,2.2816911E-2,-2.2622032E-2,-5.7096006E-3,5.446713E-3,1.8949547E-3,-1.6075987E-2,-1.0187675E-3,1.4990213E-2,1.1713143E-2,2.9985836E-2,2.0820135E-2,-2.5451165E-3,1.2441643E-2,-6.195701E-3,-1.5343212E-2,-3.5967775E-2,2.6677573E-2,-1.8412945E-3,7.159349E-2,-7.909627E-3,-4.5999982E-3,-4.3757707E-1,-2.8649897E-3,9.178764E-3,1.5885048E-2,-3.4072227E-3,6.635505E-2,3.8652108E-3,3.72858E-2,8.858809E-2,2.9584123E-2,-3.6419313E-2,1.4869577E-2,4.079306E-2,6.289033E-2,1.0232477E-2,6.972883E-2,2.577188E-2,-1.1710344E-2,8.790834E-3,1.5105818E-3,1.0047473E-2],"categories":[],"categories_nodes":[],"categories_segments":[],"categories_sizes":[],"default_left":[1,1,1,1,1,1,1,1,1,1,1,1,1,1,1,1,1,1,1,1,1,1,1,1,1,1,1,1,1,1,1,1,1,1,1,1,1,1,1,1,1,1,1,1,1,1,1,1,1,1,1,1,1,1,1,1,1,1,1,1,1,1,1,1,1,1,1,1,1,1,1,1,1,1,1,1,1,1,1,1,1,1,1,1,1,1,1,1,1,1,1,1,1,1,1,1,1,1,1,1,1,1,1,1,1,1,1,1,1,1,1,1,1,1,1,1,1,1,1,1,1,1,1,1,1,1,1,1,1,1,1,1,1,1,1,1,1,1,1,1,1,1,1,1,1,1,1,1,1,1,1,1,1,1,1,1,1,1,1,1,1,1,1,1,1,1,1,1,1,1,1,1,1,1,1,1,1,1,1,1,1,1,1,1,1,1,1,1,1,1,1,1,1,1,1,1,1,1,1,1,1,1,1,1,1,1,1,1,1,1,1,1,1,1,1,1,1,1,1,1,1,1,1,1,1,1,1,1,1,1,1,1,1,1,1,1,1,1,1,1,1,1,1,1,1,1,1,1,1,1,1,1,1,1,1,0,0,0,0,0,0,0,0,0,0,0,0,0,0,0,0,0,0,0,0,0,0,0,0,0,0,0,0,0,0,0,0,0,0,0,0,0,0,0,0,0,0,0,0,0,0,0,0,0,0,0,0,0,0,0,0,0,0,0,0,0,0,0,0,0,0,0,0,0,0,0,0,0,0,0,0,0,0,0,0,0,0,0,0,0,0,0,0,0,0,0,0,0,0,0,0,0,0,0,0,0,0,0,0,0,0,0,0,0,0,0,0,0,0,0,0,0,0,0,0,0,0,0,0,0,0,0,0,0,0,0,0,0,0,0,0,0,0,0,0,0,0,0,0,0,0,0,0,0,0,0,0,0,0,0,0,0,0,0,0,0,0,0,0,0,0,0,0,0,0,0,0,0,0,0,0,0,0,0,0,0,0,0,0,0,0,0,0,0,0,0,0,0,0,0,0,0,0,0,0,0,0,0,0,0,0,0,0,0,0,0,0,0,0,0,0,0,0,0,0,0,0,0,0,0,0,0,0,0,0,0,0,0,0,0,0,0,0,0,0,0,0,0,0,0,0,0,0,0,0,0,0,0,0,0,0],"id":3,"left_children":[1,3,5,7,9,11,13,15,17,19,21,23,25,27,29,31,33,35,37,39,41,43,45,47,49,51,53,55,57,59,61,63,65,67,69,71,73,75,77,79,81,83,85,87,89,91,93,95,97,99,101,103,105,107,109,111,113,115,117,119,121,123,125,127,129,131,133,135,137,139,141,143,145,147,149,151,153,155,157,159,161,163,165,167,169,171,173,175,177,179,181,183,185,187,189,191,193,195,197,199,201,203,205,207,209,211,213,215,217,219,221,223,225,227,229,231,233,235,237,239,241,243,245,247,249,251,253,255,257,259,261,263,265,267,269,271,273,275,277,279,281,283,285,287,289,291,293,295,297,299,301,303,305,307,309,311,313,315,317,319,321,323,325,327,329,331,333,335,337,339,341,343,345,347,349,351,353,355,357,359,361,363,365,367,369,371,373,375,377,379,381,383,385,387,389,391,393,395,397,399,401,403,405,407,409,411,413,415,417,419,421,423,425,427,429,431,433,435,437,439,441,443,445,447,449,451,453,455,457,459,461,463,465,467,469,471,473,475,477,479,481,483,485,487,489,491,493,495,497,499,501,503,505,507,509,-1,-1,-1,-1,-1,-1,-1,-1,-1,-1,-1,-1,-1,-1,-1,-1,-1,-1,-1,-1,-1,-1,-1,-1,-1,-1,-1,-1,-1,-1,-1,-1,-1,-1,-1,-1,-1,-1,-1,-1,-1,-1,-1,-1,-1,-1,-1,-1,-1,-1,-1,-1,-1,-1,-1,-1,-1,-1,-1,-1,-1,-1,-1,-1,-1,-1,-1,-1,-1,-1,-1,-1,-1,-1,-1,-1,-1,-1,-1,-1,-1,-1,-1,-1,-1,-1,-1,-1,-1,-1,-1,-1,-1,-1,-1,-1,-1,-1,-1,-1,-1,-1,-1,-1,-1,-1,-1,-1,-1,-1,-1,-1,-1,-1,-1,-1,-1,-1,-1,-1,-1,-1,-1,-1,-1,-1,-1,-1,-1,-1,-1,-1,-1,-1,-1,-1,-1,-1,-1,-1,-1,-1,-1,-1,-1,-1,-1,-1,-1,-1,-1,-1,-1,-1,-1,-1,-1,-1,-1,-1,-1,-1,-1,-1,-1,-1,-1,-1,-1,-1,-1,-1,-1,-1,-1,-1,-1,-1,-1,-1,-1,-1,-1,-1,-1,-1,-1,-1,-1,-1,-1,-1,-1,-1,-1,-1,-1,-1,-1,-1,-1,-1,-1,-1,-1,-1,-1,-1,-1,-1,-1,-1,-1,-1,-1,-1,-1,-1,-1,-1,-1,-1,-1,-1,-1,-1,-1,-1,-1,-1,-1,-1,-1,-1,-1,-1,-1,-1,-1,-1,-1,-1,-1,-1,-1,-1,-1,-1,-1,-1,-1,-1,-1,-1,-1,-1],"loss_changes":[9.2285E0,2.3508043E0,6.4844427E0,2.4683983E0,1.4547615E0,5.1771817E0,3.598299E0,8.527492E-1,1.1511662E0,1.0403147E0,1.4734082E0,2.1386404E0,1.8103528E0,2.09264E0,3.324504E0,1.2006509E0,1.3153741E0,7.876917E-1,8.9983034E-1,6.6043186E-1,6.0723674E-1,7.407347E-1,5.3633523E-1,1.2801666E0,8.996356E-1,1.6335754E0,9.240205E-1,1.1504955E0,3.98632E0,1.4051825E0,1.6582134E0,1.1035135E0,7.669835E-1,6.2475264E-1,8.4357727E-1,3.6284664E-1,5.8310395E-1,6.4575577E-1,6.106453E-1,9.778347E-1,9.7790337E-1,4.7800526E-1,4.1708964E-1,9.804983E-1,6.623811E-1,8.632834E-1,1.2817444E0,6.733873E-1,1.1594439E0,6.0695755E-1,1.108994E0,8.7462807E-1,1.5799367E0,6.283418E-1,1.182514E0,8.058691E-1,7.7667475E-1,1.7997241E0,2.4649417E0,1.0195138E0,9.0988195E-1,8.5573053E-1,1.3802149E0,5.713067E-1,6.77144E-1,4.9895608E-1,6.3887286E-1,5.2656054E-1,7.0352095E-1,4.8367822E-1,4.159053E-1,4.4046146E-1,4.6208835E-1,